tree
version=v4
num_class=25
num_tree_per_iteration=25
label_index=0
max_feature_idx=35
objective=multiclass num_class:25
feature_names=Column_0 Column_1 Column_2 Column_3 Column_4 Column_5 Column_6 Column_7 Column_8 Column_9 Column_10 Column_11 Column_12 Column_13 Column_14 Column_15 Column_16 Column_17 Column_18 Column_19 Column_20 Column_21 Column_22 Column_23 Column_24 Column_25 Column_26 Column_27 Column_28 Column_29 Column_30 Column_31 Column_32 Column_33 Column_34 Column_35
feature_infos=[-92.081847279378167:-55.293275570785809] [-92.755472746400784:-69.351143735978013] [-93.395061728395078:-70.317371643735441] [-90.333333333333343:-62] [-93:-56] [-94:-54] [0:7.4000000000000004] [-95:-65] [-93:-49] [-94:-56] [-93:-54] [0:16] [-93:-68] [-93:-67] [0:6.2999999999999998] [-96:-70] [-93:-66] [-94:-68] [-93:-66] [0:17] [-93:0] [-95:0] [0:8.0999999999999996] [-96:0] [-92:0] [-95:0] [-93:0] [0:13] [-91:-62] [-91:-62] [0:6] [-93:-65] [-91:-55] [-91:-63] [-91:-62] [0:15]
tree_sizes=449 350 349 446 447 348 452 349 452 451 452 351 446 352 449 350 350 350 351 351 351 351 352 351 453 360 359 361 464 465 361 466 361 360 363 357 363 463 362 466 361 362 361 358 358 360 361 461 360 361 361 358 359 464 362 361 465 363 362 361 359 362 467 362 462 359 364 361 463 359 359 362 566 466 467 360 360 360 569 362 360 462 363 466 463 464 363 568 363 463 362 363 360 359 361 468 466 463 360 463 469 463 363 467 364 362 464 463 361 467 462 469 465 363 468 464 363 362 360 363 363 361 570 363 361 466 465 362 466 470 362 360 362 463 466 361 469 363 569 466 359 467 466 361 468 363 363 467 362 362 468 361 363 466 364 362 362 364 361 361 359 364 467 569 468 361 466 363 361 362 465 363 570 465 360 467 360 363 465 364 362 363 466 467 466 363 363 572 570 465 360 467 468 465 467 363 364 462 362 467 464 465 363 463 363 362 363 468 364 361 362 467 463 465 467 352 362 468 467 361 466 359 568 465 363 362 465 363 464 364 362 470 362 362 463 566 363 467 572 470 357 362 465 468 362 469 362 465 468 364 468 464 361 572 469 362 362 363 470 361 362 467 464 365 469 359 365 465 465 361 467 363 463 362 361 465 467 362 674 363 362 361 364 465 467 361 470 363 462 468 363 359 467 467 361 363 363 362 363 363 571 361 363 468 362 361 364 462 364 571 465 364 569 673 573 360 364 361 564 363 469 578 467 365 365 464 360 363 571 362 363 465 364 467 470 361 466 466 365 467 361 364 467 673 360 470 361 468 470 354 464 464 362 571 466 468 363 364 363 464 362 574 466 466 574 363 364 362 361 364 471 363 467 470 364 466 363 361 572 468 363 363 467 468 362 363 573 466 673 470 363 466 465 572 469 471 467 569 365 469 465 361 361 464 365 364 468 468 363 363 466 578 469 364 465 362 468 466 572 363 365 363 465 363 468 469 363 363 572 471 364 364 353 467 469 365 468 465 468 467 362 364 467 573 363 470 366 470 363 361 464 467 363 573 364 362 363 574 365 470 363 364 363 465 557 358 467 466 469 362 363 472 568 469 362 466 361 364 671 363 363 466 570 362 363 361 364 468 466 467 361 366 363 571 361 363 469 566 364 364 463 361 362 467 363 363 468 363 363 567 363 469 467 466 471 363 464 362 574 363 470 363 571 469 465

Tree=0
num_leaves=3
num_cat=0
split_feature=34 34
split_gain=130.595 0.202417
threshold=-85.499999999999986 -81.499999999999986
decision_type=2 2
left_child=-1 -2
right_child=1 -3
leaf_value=-2.9805548767965062 -3.2556836669148215 -3.2688469188298406
leaf_weight=4.679999731481078 3.8399999439716366 22.759999625384808
leaf_count=117 96 569
internal_value=-3.2241 -3.26697
internal_weight=31.28 26.6
internal_count=782 665
is_linear=0
shrinkage=1


Tree=1
num_leaves=2
num_cat=0
split_feature=30
split_gain=276.325
threshold=2.9500000000000006
decision_type=2
left_child=-1
right_child=-2
leaf_value=-3.2688518134045408 -2.8180145066079407
leaf_weight=27.399999447166923 3.8799998536705962
leaf_count=685 97
internal_value=-3.21295
internal_weight=31.28
internal_count=782
is_linear=0
shrinkage=1


Tree=2
num_leaves=2
num_cat=0
split_feature=29
split_gain=230.965
threshold=-87.499999999999986
decision_type=2
left_child=-1
right_child=-2
leaf_value=-2.8566743022855992 -3.2688518123168717
leaf_weight=3.8799998462200191 27.3999994546175
leaf_count=97 685
internal_value=-3.21775
internal_weight=31.28
internal_count=782
is_linear=0
shrinkage=1


Tree=3
num_leaves=3
num_cat=0
split_feature=7 22
split_gain=75.5837 120.973
threshold=-90.499999999999986 1.6500000000000001
decision_type=2 2
left_child=1 -1
right_child=-2 -3
leaf_value=-3.2687276473611044 -3.2688473197524801 -2.8834125371482981
leaf_weight=4.4399995207786578 23.079999960958958 3.7599998190999031
leaf_count=111 577 94
internal_value=-3.2225 -3.09213
internal_weight=31.28 8.2
internal_count=782 205
is_linear=0
shrinkage=1


Tree=4
num_leaves=3
num_cat=0
split_feature=1 1
split_gain=222.669 0.209395
threshold=-72.184179532249757 -76.49136114163413
decision_type=2 2
left_child=1 -1
right_child=-2 -3
leaf_value=-3.2688481358207269 -2.8568168720968359 -3.2554029831662366
leaf_weight=23.759998887777336 3.7600005716085425 3.759999841451644
leaf_count=594 94 94
internal_value=-3.21775 -3.26704
internal_weight=31.28 27.52
internal_count=782 688
is_linear=0
shrinkage=1


Tree=5
num_leaves=2
num_cat=0
split_feature=10
split_gain=185.297
threshold=-73.499999999999986
decision_type=2
left_child=-1
right_child=-2
leaf_value=-3.268851743909333 -2.902880543389919
leaf_weight=27.319997631013397 3.9600016698241225
leaf_count=683 99
internal_value=-3.2225
internal_weight=31.28
internal_count=782
is_linear=0
shrinkage=1


Tree=6
num_leaves=3
num_cat=0
split_feature=17 16
split_gain=131.325 0.202958
threshold=-77.499999999999986 -74.499999999999986
decision_type=2 2
left_child=1 -1
right_child=-2 -3
leaf_value=-3.2688449670442057 -3.0092424136809726 -3.2555448024032736
leaf_weight=21.319998301565654 6.1600006371736518 3.8000003620982161
leaf_count=533 154 95
internal_value=-3.21615 -3.26686
internal_weight=31.28 25.12
internal_count=782 628
is_linear=0
shrinkage=1


Tree=7
num_leaves=2
num_cat=0
split_feature=2
split_gain=176.214
threshold=-76.993848874637905
decision_type=2
left_child=-1
right_child=-2
leaf_value=-3.2688511292313494 -2.934965951571078
leaf_weight=26.639998912811283 4.6400003880262366
leaf_count=666 116
internal_value=-3.2193
internal_weight=31.28
internal_count=782
is_linear=0
shrinkage=1


Tree=8
num_leaves=3
num_cat=0
split_feature=10 32
split_gain=185.815 0.733204
threshold=-74.499999999999986 -83.499999999999986
decision_type=2 2
left_child=1 -1
right_child=-2 -3
leaf_value=-3.2462051285994784 -2.928102807239064 -3.2688459213899197
leaf_weight=4.4399997293949189 4.8400015756487837 21.999997995793819
leaf_count=111 121 550
internal_value=-3.21295 -3.26507
internal_weight=31.28 26.44
internal_count=782 661
is_linear=0
shrinkage=1


Tree=9
num_leaves=3
num_cat=0
split_feature=14 13
split_gain=142.245 0.746003
threshold=4.3500000000000005 -72.499999999999986
decision_type=2 2
left_child=1 -1
right_child=-2 -3
leaf_value=-3.2688470203854227 -2.9472565237041128 -3.2459990307363258
leaf_weight=22.839998528361328 4.0399997979402533 4.4000009745359412
leaf_count=571 101 110
internal_value=-3.2241 -3.26518
internal_weight=31.28 27.24
internal_count=782 681
is_linear=0
shrinkage=1


Tree=10
num_leaves=3
num_cat=0
split_feature=14 10
split_gain=128.961 0.194028
threshold=4.0500000000000007 -76.499999999999986
decision_type=2 2
left_child=1 -1
right_child=-2 -3
leaf_value=-3.2688441942190996 -3.0174517343345886 -3.2559528976643257
leaf_weight=20.799998044967658 6.5599996596574774 3.9200015962123862
leaf_count=520 164 98
internal_value=-3.21455 -3.26683
internal_weight=31.28 24.72
internal_count=782 618
is_linear=0
shrinkage=1


Tree=11
num_leaves=2
num_cat=0
split_feature=1
split_gain=202.332
threshold=-88.288660369577087
decision_type=2
left_child=-1
right_child=-2
leaf_value=-2.8928219350100113 -3.2688516032155435
leaf_weight=4.1199997961521175 27.159999504685402
leaf_count=103 679
internal_value=-3.2193
internal_weight=31.28
internal_count=782
is_linear=0
shrinkage=1


Tree=12
num_leaves=3
num_cat=0
split_feature=5 1
split_gain=63.1442 117.89
threshold=-86.499999999999986 -85.219197178966667
decision_type=2 2
left_child=1 -1
right_child=-2 -3
leaf_value=-3.2687463186257153 -3.2688464563643906 -2.9006279027824657
leaf_weight=5.079999752342701 22.399999931454659 3.7999996170401591
leaf_count=127 560 95
internal_value=-3.2241 -3.11129
internal_weight=31.28 8.88
internal_count=782 222
is_linear=0
shrinkage=1


Tree=13
num_leaves=2
num_cat=0
split_feature=33
split_gain=95.6995
threshold=-69.499999999999986
decision_type=2
left_child=-1
right_child=-2
leaf_value=-3.2688496765459267 -3.0483951484532907
leaf_weight=25.159998074173931 6.1200012266635886
leaf_count=629 153
internal_value=-3.2257
internal_weight=31.28
internal_count=782
is_linear=0
shrinkage=1


Tree=14
num_leaves=3
num_cat=0
split_feature=2 2
split_gain=206.374 3.45154
threshold=-89.463248323451481 -85.811403830007578
decision_type=2 2
left_child=-1 -2
right_child=1 -3
leaf_value=-2.8736355491263188 -3.2185369129628367 -3.2688477052032834
leaf_weight=3.9199998974800137 3.9599999785423305 23.399999424815178
leaf_count=98 99 585
internal_value=-3.21295 -3.26154
internal_weight=31.28 27.36
internal_count=782 684
is_linear=0
shrinkage=1


Tree=15
num_leaves=2
num_cat=0
split_feature=26
split_gain=170.392
threshold=-73.499999999999986
decision_type=2
left_child=-1
right_child=-2
leaf_value=-3.2688519188082488 -2.9100084247396838
leaf_weight=27.51999789476395 3.7600014060735694
leaf_count=688 94
internal_value=-3.2257
internal_weight=31.28
internal_count=782
is_linear=0
shrinkage=1


Tree=16
num_leaves=2
num_cat=0
split_feature=26
split_gain=147.09
threshold=-74.499999999999986
decision_type=2
left_child=-1
right_child=-2
leaf_value=-3.2688504040107778 -2.9819607163581905
leaf_weight=25.87999796867371 5.4000013321638098
leaf_count=647 135
internal_value=-3.2193
internal_weight=31.28
internal_count=782
is_linear=0
shrinkage=1


Tree=17
num_leaves=2
num_cat=0
split_feature=0
split_gain=196.583
threshold=-87.541987787095223
decision_type=2
left_child=-1
right_child=-2
leaf_value=-2.8834125314629317 -3.2688519179298021
leaf_weight=3.7599997520446804 27.519999548792839
leaf_count=94 688
internal_value=-3.2225
internal_weight=31.28
internal_count=782
is_linear=0
shrinkage=1


Tree=18
num_leaves=2
num_cat=0
split_feature=0
split_gain=286.394
threshold=-87.541987787095223
decision_type=2
left_child=-1
right_child=-2
leaf_value=-2.8036253072984327 -3.2688519177402888
leaf_weight=3.7599997520446804 27.519999548792839
leaf_count=94 688
internal_value=-3.21295
internal_weight=31.28
internal_count=782
is_linear=0
shrinkage=1


Tree=19
num_leaves=2
num_cat=0
split_feature=34
split_gain=273.106
threshold=-63.499999999999993
decision_type=2
left_child=-1
right_child=-2
leaf_value=-3.268851778898334 -2.8226152344027815
leaf_weight=27.359998509287838 3.9200007915496817
leaf_count=684 98
internal_value=-3.21295
internal_weight=31.28
internal_count=782
is_linear=0
shrinkage=1


Tree=20
num_leaves=2
num_cat=0
split_feature=17
split_gain=163.368
threshold=-90.499999999999986
decision_type=2
left_child=-1
right_child=-2
leaf_value=-2.948503604962184 -3.2688510918434579
leaf_weight=4.6799998581409481 26.599999442696571
leaf_count=117 665
internal_value=-3.2209
internal_weight=31.28
internal_count=782
is_linear=0
shrinkage=1


Tree=21
num_leaves=2
num_cat=0
split_feature=16
split_gain=230.965
threshold=-86.499999999999986
decision_type=2
left_child=-1
right_child=-2
leaf_value=-2.856674279375766 -3.2688518129832231
leaf_weight=3.8799996748566654 27.399999625980854
leaf_count=97 685
internal_value=-3.21775
internal_weight=31.28
internal_count=782
is_linear=0
shrinkage=1


Tree=22
num_leaves=2
num_cat=0
split_feature=28
split_gain=110.659
threshold=-69.499999999999986
decision_type=2
left_child=-1
right_child=-2
leaf_value=-3.268848182356396 -3.0483755830738906
leaf_weight=23.799998417496685 7.4800008833408347
leaf_count=595 187
internal_value=-3.21615
internal_weight=31.28
internal_count=782
is_linear=0
shrinkage=1


Tree=23
num_leaves=2
num_cat=0
split_feature=33
split_gain=185.297
threshold=-68.499999999999986
decision_type=2
left_child=-1
right_child=-2
leaf_value=-3.2688517443457235 -2.9028805355593499
leaf_weight=27.319997683167461 3.9600016176700583
leaf_count=683 99
internal_value=-3.2225
internal_weight=31.28
internal_count=782
is_linear=0
shrinkage=1


Tree=24
num_leaves=3
num_cat=0
split_feature=32 22
split_gain=218.984 0.891656
threshold=-62.499999999999993 0.75000000000000011
decision_type=2 2
left_child=1 -1
right_child=-2 -3
leaf_value=-3.2423869156539764 -2.8690404560851803 -3.2688478041523052
leaf_weight=3.7999991774559083 4.0000010877847663 23.479999035596848
leaf_count=95 100 587
internal_value=-3.21455 -3.26519
internal_weight=31.28 27.28
internal_count=782 682
is_linear=0
shrinkage=1


Tree=25
num_leaves=2
num_cat=0
split_feature=3
split_gain=103.91
threshold=-85.921965013891239
decision_type=2
left_child=-1
right_child=-2
leaf_value=0.18117626941331988 -0.049876264729242198
leaf_weight=6.0404666662216213 25.024302568286657
leaf_count=125 657
internal_value=-0.0049275
internal_weight=31.0648
internal_count=782
is_linear=0
shrinkage=0.05


Tree=26
num_leaves=2
num_cat=0
split_feature=30
split_gain=272.693
threshold=3.1500000000000008
decision_type=2
left_child=-1
right_child=-2
leaf_value=-0.049928204323534675 0.39603417792532547
leaf_weight=27.608072102069858 3.9136911630630484
leaf_count=713 69
internal_value=0.0054209
internal_weight=31.5218
internal_count=782
is_linear=0
shrinkage=0.05


Tree=27
num_leaves=2
num_cat=0
split_feature=3
split_gain=230.233
threshold=-86.994991091591814
decision_type=2
left_child=-1
right_child=-2
leaf_value=0.36149987165988495 -0.049946059524954893
leaf_weight=3.8804469704628017 27.462168958038092
leaf_count=77 705
internal_value=0.000972997
internal_weight=31.3426
internal_count=782
is_linear=0
shrinkage=0.05


Tree=28
num_leaves=3
num_cat=0
split_feature=8 30
split_gain=69.4658 115.811
threshold=-80.499999999999986 1.8500000000000003
decision_type=2 2
left_child=1 -1
right_child=-2 -3
leaf_value=0.31663402165111076 -0.049945604292528117 -0.049775876783947126
leaf_weight=3.9469317831099051 22.491678543388844 4.7485141046345234
leaf_count=81 576 125
internal_value=-0.00352674 0.116465
internal_weight=31.1871 8.69545
internal_count=782 206
is_linear=0
shrinkage=0.05


Tree=29
num_leaves=3
num_cat=0
split_feature=1 3
split_gain=175.038 0.229562
threshold=-72.039038088357117 -85.118501150911854
decision_type=2 2
left_child=1 -1
right_child=-2 -3
leaf_value=-0.035375658621576343 0.2858260571442876 -0.049884529133129123
leaf_weight=3.4784268327057424 4.6010719612240782 23.287667702883482
leaf_count=90 82 610
internal_value=0.000925958 -0.0480236
internal_weight=31.3672 26.7661
internal_count=782 700
is_linear=0
shrinkage=0.05


Tree=30
num_leaves=2
num_cat=0
split_feature=0
split_gain=184.996
threshold=-75.707827397585064
decision_type=2
left_child=-1
right_child=-2
leaf_value=-0.049918666382263603 0.31624401308966221
leaf_weight=27.214060127735141 3.9501347616314879
leaf_count=705 77
internal_value=-0.00348557
internal_weight=31.1642
internal_count=782
is_linear=0
shrinkage=0.05


Tree=31
num_leaves=3
num_cat=0
split_feature=9 30
split_gain=119.611 0.194235
threshold=-80.499999999999986 2.4500000000000006
decision_type=2 2
left_child=1 -1
right_child=-2 -3
leaf_value=-0.050001716977236745 0.19129117728535736 -0.037161610009629739
leaf_weight=20.720389414578683 6.6257658787071696 3.9648118726909152
leaf_count=517 162 103
internal_value=0.00264256 -0.0479661
internal_weight=31.311 24.6852
internal_count=782 620
is_linear=0
shrinkage=0.05


Tree=32
num_leaves=2
num_cat=0
split_feature=2
split_gain=128.836
threshold=-76.993848874637905
decision_type=2
left_child=-1
right_child=-2
leaf_value=-0.049863144751443253 0.20810218006290926
leaf_weight=25.253920465707782 5.9876730851829043
leaf_count=666 116
internal_value=-0.0004012
internal_weight=31.2416
internal_count=782
is_linear=0
shrinkage=0.05


Tree=33
num_leaves=2
num_cat=0
split_feature=18
split_gain=144.231
threshold=-71.499999999999986
decision_type=2
left_child=-1
right_child=-2
leaf_value=-0.049999000784601969 0.2118261849099799
leaf_weight=24.777803894132379 6.6772016659378997
leaf_count=623 159
internal_value=0.00555978
internal_weight=31.455
internal_count=782
is_linear=0
shrinkage=0.05


Tree=34
num_leaves=2
num_cat=0
split_feature=16
split_gain=153.444
threshold=-68.499999999999986
decision_type=2
left_child=-1
right_child=-2
leaf_value=-0.049961952722745381 0.26938452196391888
leaf_weight=26.679385229945186 4.3788288831710807
leaf_count=679 103
internal_value=-0.00491681
internal_weight=31.0582
internal_count=782
is_linear=0
shrinkage=0.05


Tree=35
num_leaves=2
num_cat=0
split_feature=8
split_gain=243.79
threshold=-71.499999999999986
decision_type=2
left_child=-1
right_child=-2
leaf_value=-0.04996962401947766 0.36313716023214071
leaf_weight=27.226525060832504 4.1104845963418475
leaf_count=690 92
internal_value=0.00419672
internal_weight=31.337
internal_count=782
is_linear=0
shrinkage=0.05


Tree=36
num_leaves=2
num_cat=0
split_feature=13
split_gain=219.818
threshold=-90.499999999999986
decision_type=2
left_child=-1
right_child=-2
leaf_value=0.35491166235422239 -0.049926137504866706
leaf_weight=3.8196738958358791 27.447177208960056
leaf_count=73 709
internal_value=-0.000448612
internal_weight=31.2669
internal_count=782
is_linear=0
shrinkage=0.05


Tree=37
num_leaves=3
num_cat=0
split_feature=6 7
split_gain=128.593 1.89632
threshold=4.9500000000000011 -91.499999999999986
decision_type=2 2
left_child=1 -1
right_child=-2 -3
leaf_value=-0.012578885447106076 0.2572598323093393 -0.049978243942466583
leaf_weight=4.0330793596804204 4.0633746348321429 22.99110172316432
leaf_count=105 96 581
internal_value=-0.00496801 -0.0444211
internal_weight=31.0876 27.0242
internal_count=782 686
is_linear=0
shrinkage=0.05


Tree=38
num_leaves=2
num_cat=0
split_feature=3
split_gain=75.6927
threshold=-68.349229735756182
decision_type=2
left_child=-1
right_child=-2
leaf_value=-0.049872978316978171 0.13420220665413238
leaf_weight=23.611723601818088 7.3144733570516101
leaf_count=619 163
internal_value=-0.00631538
internal_weight=30.9262
internal_count=782
is_linear=0
shrinkage=0.05


Tree=39
num_leaves=3
num_cat=0
split_feature=25 24
split_gain=193.717 4.33919
threshold=-90.499999999999986 -72.499999999999986
decision_type=2 2
left_child=-1 -2
right_child=1 -3
leaf_value=0.33688121912513874 -0.049971938556526541 0.0022937238360568619
leaf_weight=3.8693934269249466 22.806726559996612 4.7795399315655187
leaf_count=78 576 128
internal_value=0.0055568 -0.0408926
internal_weight=31.4557 27.5863
internal_count=782 704
is_linear=0
shrinkage=0.05


Tree=40
num_leaves=2
num_cat=0
split_feature=8
split_gain=162.221
threshold=-83.499999999999986
decision_type=2
left_child=-1
right_child=-2
leaf_value=0.29419793361338575 -0.049972069010366493
leaf_weight=3.9190464913845089 27.085451114922762
leaf_count=96 686
internal_value=-0.00644689
internal_weight=31.0045
internal_count=782
is_linear=0
shrinkage=0.05


Tree=41
num_leaves=2
num_cat=0
split_feature=22
split_gain=225.481
threshold=4.1500000000000012
decision_type=2
left_child=-1
right_child=-2
leaf_value=-0.049957975463670756 0.36381394789382604
leaf_weight=27.430877532809976 3.7416118234395972
leaf_count=697 85
internal_value=-0.000272115
internal_weight=31.1725
internal_count=782
is_linear=0
shrinkage=0.05


Tree=42
num_leaves=2
num_cat=0
split_feature=5
split_gain=185.299
threshold=-88.999999999999986
decision_type=2
left_child=-1
right_child=-2
leaf_value=0.31684954428352019 -0.049906962109197969
leaf_weight=3.9428972303867367 27.213372409343719
leaf_count=75 707
internal_value=-0.00347197
internal_weight=31.1563
internal_count=782
is_linear=0
shrinkage=0.05


Tree=43
num_leaves=2
num_cat=0
split_feature=0
split_gain=276.62
threshold=-88.276586156866969
decision_type=2
left_child=-1
right_child=-2
leaf_value=0.40168949987051328 -0.049924685542530808
leaf_weight=3.8638817071914699 27.68443651497364
leaf_count=66 716
internal_value=0.00536594
internal_weight=31.5483
internal_count=782
is_linear=0
shrinkage=0.05


Tree=44
num_leaves=2
num_cat=0
split_feature=3
split_gain=269.767
threshold=-64.500936193817736
decision_type=2
left_child=-1
right_child=-2
leaf_value=-0.049937117640718183 0.39178075788352812
leaf_weight=27.536058157682422 3.952637653797864
leaf_count=708 74
internal_value=0.0054889
internal_weight=31.4887
internal_count=782
is_linear=0
shrinkage=0.05


Tree=45
num_leaves=2
num_cat=0
split_feature=26
split_gain=207.056
threshold=-73.499999999999986
decision_type=2
left_child=-1
right_child=-2
leaf_value=-0.049992327874311203 0.34342604543370475
leaf_weight=27.359833471477035 3.8101184107363215
leaf_count=688 94
internal_value=-0.00188097
internal_weight=31.17
internal_count=782
is_linear=0
shrinkage=0.05


Tree=46
num_leaves=2
num_cat=0
split_feature=1
split_gain=137.093
threshold=-88.124734448414785
decision_type=2
left_child=-1
right_child=-2
leaf_value=0.21596477440466125 -0.04987123509606347
leaf_weight=5.9966802597045925 25.358473513275385
leaf_count=115 667
internal_value=0.000948984
internal_weight=31.3552
internal_count=782
is_linear=0
shrinkage=0.05


Tree=47
num_leaves=3
num_cat=0
split_feature=34 6
split_gain=90.8844 38.5606
threshold=-67.999999999999986 2.5500000000000003
decision_type=2 2
left_child=-1 -2
right_child=1 -3
leaf_value=-0.049871538888280949 0.032585902438841734 0.24426803071371542
leaf_weight=22.612860251218084 4.2163093090057355 4.4100688435137272
leaf_count=593 94 95
internal_value=0.00278154 0.140881
internal_weight=31.2392 8.62638
internal_count=782 189
is_linear=0
shrinkage=0.05


Tree=48
num_leaves=2
num_cat=0
split_feature=32
split_gain=152.05
threshold=-62.499999999999993
decision_type=2
left_child=-1
right_child=-2
leaf_value=-0.04992013059256447 0.25930116081309779
leaf_weight=26.43024738505483 4.6792076118290415
leaf_count=682 100
internal_value=-0.00338866
internal_weight=31.1095
internal_count=782
is_linear=0
shrinkage=0.05


Tree=49
num_leaves=2
num_cat=0
split_feature=2
split_gain=197.204
threshold=-89.243473462694737
decision_type=2
left_child=-1
right_child=-2
leaf_value=0.29455240529975035 -0.049966395400727379
leaf_weight=4.9272339940071133 26.454523362219334
leaf_count=110 672
internal_value=0.00410537
internal_weight=31.3818
internal_count=782
is_linear=0
shrinkage=0.05


Tree=50
num_leaves=2
num_cat=0
split_feature=3
split_gain=84.117
threshold=-85.921965013891239
decision_type=2
left_child=-1
right_child=-2
leaf_value=0.14657440716699544 -0.049773000490583197
leaf_weight=7.0833882093429592 23.720850586891174
leaf_count=125 657
internal_value=-0.00460185
internal_weight=30.8042
internal_count=782
is_linear=0
shrinkage=0.05


Tree=51
num_leaves=2
num_cat=0
split_feature=4
split_gain=271.967
threshold=-74.499999999999986
decision_type=2
left_child=-1
right_child=-2
leaf_value=-0.050085981768834199 0.39486734261185064
leaf_weight=27.748637557029728 3.919223165139555
leaf_count=714 68
internal_value=0.0049608
internal_weight=31.6679
internal_count=782
is_linear=0
shrinkage=0.05


Tree=52
num_leaves=2
num_cat=0
split_feature=3
split_gain=236.677
threshold=-87.39120770664131
decision_type=2
left_child=-1
right_child=-2
leaf_value=0.37261418696998622 -0.049920620715838554
leaf_weight=3.7667752504348782 27.579696554690599
leaf_count=52 730
internal_value=0.00083265
internal_weight=31.3465
internal_count=782
is_linear=0
shrinkage=0.05


Tree=53
num_leaves=3
num_cat=0
split_feature=7 2
split_gain=54.7265 96.6746
threshold=-90.499999999999986 -82.352032600346689
decision_type=2 2
left_child=1 -1
right_child=-2 -3
leaf_value=-0.050144726677977515 -0.049778438681819012 0.2591254451174021
leaf_weight=5.5068497322499752 20.899416517466307 4.6650900430977362
leaf_count=131 577 74
internal_value=-0.00346416 0.0916292
internal_weight=31.0714 10.1719
internal_count=782 205
is_linear=0
shrinkage=0.05


Tree=54
num_leaves=2
num_cat=0
split_feature=12
split_gain=182.327
threshold=-71.499999999999986
decision_type=2
left_child=-1
right_child=-2
leaf_value=-0.049925463938523922 0.28732656051691952
leaf_weight=26.603934675455097 4.7183308247476807
leaf_count=710 72
internal_value=0.000856587
internal_weight=31.3223
internal_count=782
is_linear=0
shrinkage=0.05


Tree=55
num_leaves=2
num_cat=0
split_feature=7
split_gain=177.638
threshold=-75.499999999999986
decision_type=2
left_child=-1
right_child=-2
leaf_value=-0.049885382645433934 0.30458057795190674
leaf_weight=26.935526993125681 4.0682819783687583
leaf_count=722 60
internal_value=-0.00335157
internal_weight=31.0038
internal_count=782
is_linear=0
shrinkage=0.05


Tree=56
num_leaves=3
num_cat=0
split_feature=13 12
split_gain=159.947 5.65041
threshold=-71.499999999999986 -74.499999999999986
decision_type=2 2
left_child=1 -1
right_child=-2 -3
leaf_value=-0.049869045993738231 0.29683086324208435 0.016093194044598361
leaf_weight=23.531522210687406 4.0259023606777182 3.7496364116668692
leaf_count=625 77 80
internal_value=0.00261479 -0.0407788
internal_weight=31.3071 27.2812
internal_count=782 705
is_linear=0
shrinkage=0.05


Tree=57
num_leaves=2
num_cat=0
split_feature=2
split_gain=100.996
threshold=-76.993848874637905
decision_type=2
left_child=-1
right_child=-2
leaf_value=-0.049758598330426451 0.16378660070109519
leaf_weight=23.926831454038624 7.2039066255092612
leaf_count=666 116
internal_value=-0.000321364
internal_weight=31.1307
internal_count=782
is_linear=0
shrinkage=0.05


Tree=58
num_leaves=2
num_cat=0
split_feature=23
split_gain=134.589
threshold=-80.499999999999986
decision_type=2
left_child=-1
right_child=-2
leaf_value=-0.050005268343612241 0.19795690836271218
leaf_weight=24.528338186442856 7.0437883455306283
leaf_count=619 163
internal_value=0.00529463
internal_weight=31.5721
internal_count=782
is_linear=0
shrinkage=0.05


Tree=59
num_leaves=2
num_cat=0
split_feature=7
split_gain=72.3978
threshold=-82.499999999999986
decision_type=2
left_child=-1
right_child=-2
leaf_value=-0.049891603069682697 0.12505457316255311
leaf_weight=22.891868311911825 7.9730817116796961
leaf_count=606 176
internal_value=-0.00467792
internal_weight=30.865
internal_count=782
is_linear=0
shrinkage=0.05


Tree=60
num_leaves=2
num_cat=0
split_feature=8
split_gain=260.384
threshold=-68.999999999999986
decision_type=2
left_child=-1
right_child=-2
leaf_value=-0.049955817383779862 0.38803232785880426
leaf_weight=27.63461817055941 3.8683305755257598
leaf_count=719 63
internal_value=0.00380503
internal_weight=31.5029
internal_count=782
is_linear=0
shrinkage=0.05


Tree=61
num_leaves=2
num_cat=0
split_feature=16
split_gain=189.058
threshold=-90.499999999999986
decision_type=2
left_child=-1
right_child=-2
leaf_value=0.30628002929086567 -0.049875295823172926
leaf_weight=4.324789650738242 26.916863217949867
leaf_count=59 723
internal_value=-0.000551565
internal_weight=31.2417
internal_count=782
is_linear=0
shrinkage=0.05


Tree=62
num_leaves=3
num_cat=0
split_feature=30 5
split_gain=72.3383 3.05627
threshold=2.6500000000000008 -87.499999999999986
decision_type=2 2
left_child=1 -1
right_child=-2 -3
leaf_value=-0.003421909078442822 0.15270227334094105 -0.049907160343507694
leaf_weight=4.3028648234903875 5.9025990515947333 20.668371800333261
leaf_count=110 132 540
internal_value=-0.00469276 -0.0419235
internal_weight=30.8738 24.9712
internal_count=782 650
is_linear=0
shrinkage=0.05


Tree=63
num_leaves=2
num_cat=0
split_feature=31
split_gain=71.0701
threshold=-70.499999999999986
decision_type=2
left_child=-1
right_child=-2
leaf_value=-0.049786372592258737 0.12641271101803009
leaf_weight=22.948048219084743 7.6239220537245265
leaf_count=630 152
internal_value=-0.00582499
internal_weight=30.572
internal_count=782
is_linear=0
shrinkage=0.05


Tree=64
num_leaves=3
num_cat=0
split_feature=23 22
split_gain=150.42 5.39743
threshold=-91.499999999999986 0.65000000000000002
decision_type=2 2
left_child=-1 -2
right_child=1 -3
leaf_value=0.26496429258495707 0.013588703426822557 -0.04987157162697043
leaf_weight=4.7388769090175655 3.9062093868851688 22.915909100323915
leaf_count=79 94 609
internal_value=0.00525526 -0.0406051
internal_weight=31.561 26.8221
internal_count=782 703
is_linear=0
shrinkage=0.05


Tree=65
num_leaves=2
num_cat=0
split_feature=2
split_gain=171.056
threshold=-76.134938779657574
decision_type=2
left_child=-1
right_child=-2
leaf_value=-0.04992196405623528 0.3114422661065806
leaf_weight=26.989434540271763 3.7269852906465522
leaf_count=703 79
internal_value=-0.00605431
internal_weight=30.7164
internal_count=782
is_linear=0
shrinkage=0.05


Tree=66
num_leaves=2
num_cat=0
split_feature=28
split_gain=126.888
threshold=-85.499999999999986
decision_type=2
left_child=-1
right_child=-2
leaf_value=0.20482624805925373 -0.049978041000375263
leaf_weight=6.0692646801471737 25.059252355247736
leaf_count=139 643
internal_value=-0.000276585
internal_weight=31.1285
internal_count=782
is_linear=0
shrinkage=0.05


Tree=67
num_leaves=2
num_cat=0
split_feature=0
split_gain=199.368
threshold=-89.341751998925645
decision_type=2
left_child=-1
right_child=-2
leaf_value=0.34221722233785795 -0.049896911280628779
leaf_weight=3.6783887147903469 27.302749544382095
leaf_count=52 730
internal_value=-0.00331998
internal_weight=30.9811
internal_count=782
is_linear=0
shrinkage=0.05


Tree=68
num_leaves=3
num_cat=0
split_feature=10 35
split_gain=204.602 0.22206
threshold=-88.999999999999986 1.5000000000000002
decision_type=2 2
left_child=-1 -2
right_child=1 -3
leaf_value=0.30968234169322156 -0.049872971729976512 -0.035661857263294086
leaf_weight=4.6911661997437504 23.49322855100036 3.5206481106579295
leaf_count=57 634 91
internal_value=0.00486439 -0.0480452
internal_weight=31.705 27.0139
internal_count=782 725
is_linear=0
shrinkage=0.05


Tree=69
num_leaves=2
num_cat=0
split_feature=34
split_gain=219.503
threshold=-62.499999999999993
decision_type=2
left_child=-1
right_child=-2
leaf_value=-0.049890083442148556 0.32066286124601051
leaf_weight=26.923958931118253 4.6930704079568377
leaf_count=719 63
internal_value=0.0050921
internal_weight=31.617
internal_count=782
is_linear=0
shrinkage=0.05


Tree=70
num_leaves=2
num_cat=0
split_feature=13
split_gain=190.802
threshold=-90.499999999999986
decision_type=2
left_child=-1
right_child=-2
leaf_value=0.3172715792499689 -0.04990432425518572
leaf_weight=4.0715152919292477 27.006873447448015
leaf_count=73 709
internal_value=-0.0017802
internal_weight=31.0784
internal_count=782
is_linear=0
shrinkage=0.05


Tree=71
num_leaves=2
num_cat=0
split_feature=16
split_gain=128.623
threshold=-87.499999999999986
decision_type=2
left_child=-1
right_child=-2
leaf_value=0.20344232517303282 -0.049789066706900871
leaf_weight=6.2709562927484539 25.025618106126785
leaf_count=93 689
internal_value=0.000930389
internal_weight=31.2966
internal_count=782
is_linear=0
shrinkage=0.05


Tree=72
num_leaves=4
num_cat=0
split_feature=22 33 19
split_gain=88.1622 144.301 0.198651
threshold=2.5500000000000003 -78.499999999999986 1.5000000000000002
decision_type=2 2 2
left_child=2 -2 -1
right_child=1 -3 -4
leaf_value=-0.05007893078788922 -0.049597602599278964 0.36811995536070952 -0.036869393505719869
leaf_weight=19.06339946761728 4.5004242621362209 3.8207783587276918 3.8557829037308684
leaf_count=470 128 86 98
internal_value=0.00270438 0.142123 -0.0478853
internal_weight=31.2404 8.3212 22.9192
internal_count=782 214 568
is_linear=0
shrinkage=0.05


Tree=73
num_leaves=3
num_cat=0
split_feature=34 20
split_gain=167.838 0.203608
threshold=-62.499999999999993 -88.499999999999986
decision_type=2 2
left_child=1 -1
right_child=-2 -3
leaf_value=-0.036493793026641588 0.29960140643991212 -0.04983096928609565
leaf_weight=3.735339865088469 3.9874242693185797 23.160323701798916
leaf_count=94 63 625
internal_value=-0.00310138 -0.0480031
internal_weight=30.8831 26.8957
internal_count=782 719
is_linear=0
shrinkage=0.05


Tree=74
num_leaves=3
num_cat=0
split_feature=24 26
split_gain=206.903 0.200793
threshold=-88.499999999999986 -86.499999999999986
decision_type=2 2
left_child=-1 -2
right_child=1 -3
leaf_value=0.32008478938279583 -0.036357114501361969 -0.049857040429711549
leaf_weight=4.4439505785703686 3.5749447271227863 23.420470342040062
leaf_count=78 78 626
internal_value=0.00392741 -0.0480936
internal_weight=31.4394 26.9954
internal_count=782 704
is_linear=0
shrinkage=0.05


Tree=75
num_leaves=2
num_cat=0
split_feature=2
split_gain=84.0925
threshold=-86.614285424382913
decision_type=2
left_child=-1
right_child=-2
leaf_value=0.14606767712106536 -0.050102041415399236
leaf_weight=7.1262813508510616 23.40381757542491
leaf_count=183 599
internal_value=-0.0042909
internal_weight=30.5301
internal_count=782
is_linear=0
shrinkage=0.05


Tree=76
num_leaves=2
num_cat=0
split_feature=5
split_gain=173.013
threshold=-75.499999999999986
decision_type=2
left_child=-1
right_child=-2
leaf_value=-0.049991713383506865 0.25414773004052205
leaf_weight=26.106008589267734 5.6962005086243144
leaf_count=706 76
internal_value=0.00446304
internal_weight=31.8022
internal_count=782
is_linear=0
shrinkage=0.05


Tree=77
num_leaves=2
num_cat=0
split_feature=3
split_gain=223.752
threshold=-87.929997108520084
decision_type=2
left_child=-1
right_child=-2
leaf_value=0.35398102979030022 -0.049951414298010956
leaf_weight=3.9196884632110622 27.35136248357594
leaf_count=38 744
internal_value=0.000658706
internal_weight=31.2711
internal_count=782
is_linear=0
shrinkage=0.05


Tree=78
num_leaves=4
num_cat=0
split_feature=14 7 14
split_gain=48.5993 100.979 0.900102
threshold=3.7500000000000004 -88.499999999999986 2.9500000000000006
decision_type=2 2 2
left_child=2 -2 -1
right_child=1 -3 -4
leaf_value=-0.050047252628304478 0.27900201313437373 -0.049586462038856249 -0.022234485007785076
leaf_weight=17.767530400305994 4.0696176663041115 5.4892974495887739 3.5894872322678557
leaf_count=468 62 160 92
internal_value=-0.00344313 0.0902382 -0.0454035
internal_weight=30.9159 9.55892 21.357
internal_count=782 222 560
is_linear=0
shrinkage=0.05


Tree=79
num_leaves=2
num_cat=0
split_feature=12
split_gain=236.779
threshold=-70.499999999999986
decision_type=2
left_child=-1
right_child=-2
leaf_value=-0.050045494250257429 0.37350530599127718
leaf_weight=27.483371280133728 3.7498980965465298
leaf_count=739 43
internal_value=0.000785389
internal_weight=31.2333
internal_count=782
is_linear=0
shrinkage=0.05


Tree=80
num_leaves=2
num_cat=0
split_feature=9
split_gain=173.002
threshold=-74.499999999999986
decision_type=2
left_child=-1
right_child=-2
leaf_value=-0.049890018521660785 0.29791554319446856
leaf_weight=26.613161414861683 4.1301765870302907
leaf_count=735 47
internal_value=-0.0031431
internal_weight=30.7433
internal_count=782
is_linear=0
shrinkage=0.05


Tree=81
num_leaves=3
num_cat=0
split_feature=13 18
split_gain=112.789 5.37637
threshold=-71.499999999999986 -71.499999999999986
decision_type=2 2
left_child=1 -1
right_child=-2 -3
leaf_value=-0.049758749027190768 0.2131039042677908 0.013974399997856877
leaf_weight=22.180601861327894 5.2831399571150532 3.871220212429761
leaf_count=623 77 82
internal_value=0.00243424 -0.0402629
internal_weight=31.335 26.0518
internal_count=782 705
is_linear=0
shrinkage=0.05


Tree=82
num_leaves=2
num_cat=0
split_feature=10
split_gain=93.1804
threshold=-76.499999999999986
decision_type=2
left_child=-1
right_child=-2
leaf_value=-0.05002302832272465 0.15085512684255198
leaf_weight=23.264417439699177 7.6782978679984799
leaf_count=618 164
internal_value=-0.000154741
internal_weight=30.9427
internal_count=782
is_linear=0
shrinkage=0.05


Tree=83
num_leaves=3
num_cat=0
split_feature=10 7
split_gain=119.018 0.632794
threshold=-74.499999999999986 -83.499999999999986
decision_type=2 2
left_child=1 -1
right_child=-2 -3
leaf_value=-0.04981046714019105 0.18960631928188404 -0.029210534678895159
leaf_weight=20.001828927546747 6.8489281442016354 4.7985291853547087
leaf_count=548 121 113
internal_value=0.0050812 -0.0458512
internal_weight=31.6493 24.8004
internal_count=782 661
is_linear=0
shrinkage=0.05


Tree=84
num_leaves=3
num_cat=0
split_feature=14 6
split_gain=139.81 0.877017
threshold=4.6500000000000012 1.2500000000000002
decision_type=2 2
left_child=1 -1
right_child=-2 -3
leaf_value=-0.023708018247382376 0.269088529804906 -0.049890388290493831
leaf_weight=3.8438239675015273 4.0555929392576209 22.684878319501877
leaf_count=105 69 608
internal_value=-0.00430199 -0.0461215
internal_weight=30.5843 26.5287
internal_count=782 713
is_linear=0
shrinkage=0.05


Tree=85
num_leaves=3
num_cat=0
split_feature=23 23
split_gain=163.414 0.92473
threshold=-77.499999999999986 -81.499999999999986
decision_type=2 2
left_child=1 -1
right_child=-2 -3
leaf_value=-0.05009088369197974 0.26336586189216088 -0.022747296469704276
leaf_weight=22.813853383064277 5.0759112909436217 3.6862891912460318
leaf_count=588 98 96
internal_value=0.0034484 -0.0463121
internal_weight=31.5761 26.5001
internal_count=782 684
is_linear=0
shrinkage=0.05


Tree=86
num_leaves=2
num_cat=0
split_feature=18
split_gain=139.928
threshold=-91.499999999999986
decision_type=2
left_child=-1
right_child=-2
leaf_value=0.22815705560723409 -0.049774169358490244
leaf_weight=5.5042288601398495 25.550429463386536
leaf_count=59 723
internal_value=-0.000491546
internal_weight=31.0547
internal_count=782
is_linear=0
shrinkage=0.05


Tree=87
num_leaves=4
num_cat=0
split_feature=30 30 26
split_gain=58.7731 8.08562 0.873901
threshold=3.0500000000000003 2.4500000000000006 -82.499999999999986
decision_type=2 2 2
left_child=1 2 -1
right_child=-2 -3 -4
leaf_value=-0.028100690312530392 0.1746190598182977 0.03228941370172124 -0.049770113391025349
leaf_weight=6.8886633887887063 3.9873431324958792 4.2102653682231894 15.547249104827644
leaf_count=181 80 88 433
internal_value=-0.0043904 -0.0312021 -0.0431461
internal_weight=30.6335 26.6462 22.4359
internal_count=782 702 614
is_linear=0
shrinkage=0.05


Tree=88
num_leaves=2
num_cat=0
split_feature=28
split_gain=57.7986
threshold=-68.499999999999986
decision_type=2
left_child=-1
right_child=-2
leaf_value=-0.049682460414136563 0.10249800790374033
leaf_weight=21.459768697619442 8.7964453864842636
leaf_count=623 159
internal_value=-0.00541701
internal_weight=30.2562
internal_count=782
is_linear=0
shrinkage=0.05


Tree=89
num_leaves=3
num_cat=0
split_feature=2 2
split_gain=143.057 8.97125
threshold=-89.849370513139718 -87.380620057414276
decision_type=2 2
left_child=-1 -2
right_child=1 -3
leaf_value=0.27329582552596948 0.028183783893486539 -0.049731904118795744
leaf_weight=4.2942089438438442 4.3935681879520443 22.900713572278619
leaf_count=57 76 649
internal_value=0.00501831 -0.0371657
internal_weight=31.5885 27.2943
internal_count=782 725
is_linear=0
shrinkage=0.05


Tree=90
num_leaves=2
num_cat=0
split_feature=23
split_gain=164.141
threshold=-75.499999999999986
decision_type=2
left_child=-1
right_child=-2
leaf_value=-0.049863321982889376 0.29986931026255731
leaf_weight=26.608873024582866 3.8388840425759545
leaf_count=719 63
internal_value=-0.00574707
internal_weight=30.4478
internal_count=782
is_linear=0
shrinkage=0.05


Tree=91
num_leaves=2
num_cat=0
split_feature=15
split_gain=108.666
threshold=-91.499999999999986
decision_type=2
left_child=-1
right_child=-2
leaf_value=0.17604532347448704 -0.049886555707176677
leaf_weight=6.8239060565829304 24.181070337072015
leaf_count=140 642
internal_value=-0.000139837
internal_weight=31.005
internal_count=782
is_linear=0
shrinkage=0.05


Tree=92
num_leaves=2
num_cat=0
split_feature=5
split_gain=183.889
threshold=-90.499999999999986
decision_type=2
left_child=-1
right_child=-2
leaf_value=0.31641781893229942 -0.049990015686645982
leaf_weight=3.9247119426727322 26.852327333763242
leaf_count=47 735
internal_value=-0.00324402
internal_weight=30.777
internal_count=782
is_linear=0
shrinkage=0.05


Tree=93
num_leaves=2
num_cat=0
split_feature=0
split_gain=138.211
threshold=-88.276586156866969
decision_type=2
left_child=-1
right_child=-2
leaf_value=0.20540037155160254 -0.049727003454798059
leaf_weight=6.7423571944236782 24.958661088719964
leaf_count=66 716
internal_value=0.00451422
internal_weight=31.701
internal_count=782
is_linear=0
shrinkage=0.05


Tree=94
num_leaves=2
num_cat=0
split_feature=28
split_gain=256.189
threshold=-63.499999999999993
decision_type=2
left_child=-1
right_child=-2
leaf_value=-0.050040295657210979 0.37412592521348609
leaf_weight=27.538401942700151 4.0882654432207337
leaf_count=741 41
internal_value=0.00476935
internal_weight=31.6267
internal_count=782
is_linear=0
shrinkage=0.05


Tree=95
num_leaves=3
num_cat=0
split_feature=16 17
split_gain=165.991 2.11366
threshold=-91.499999999999986 -90.499999999999986
decision_type=2 2
left_child=-1 -2
right_child=1 -3
leaf_value=0.31261689325761921 -0.0080019095144409687 -0.049761843036512557
leaf_weight=3.6987889036536243 3.5187980234622982 23.680309476330876
leaf_count=49 68 665
internal_value=-0.00162564 -0.0443835
internal_weight=30.8979 27.1991
internal_count=782 733
is_linear=0
shrinkage=0.05


Tree=96
num_leaves=3
num_cat=0
split_feature=9 11
split_gain=124.721 0.212527
threshold=-90.499999999999986 2.5000000000000004
decision_type=2 2
left_child=-1 -2
right_child=1 -3
leaf_value=0.20447134951406937 -0.050177153156668222 -0.036397873685088247
leaf_weight=6.065556704998019 21.413100190460685 3.6688372548669568
leaf_count=132 556 94
internal_value=0.000993037 -0.0481878
internal_weight=31.1475 25.0819
internal_count=782 650
is_linear=0
shrinkage=0.05


Tree=97
num_leaves=3
num_cat=0
split_feature=33 30
split_gain=59.492 88.0192
threshold=-72.499999999999986 2.0500000000000003
decision_type=2 2
left_child=-1 -2
right_child=1 -3
leaf_value=-0.049777624169744149 -0.041868519133422849 0.23557822743423459
leaf_weight=19.954641520977024 5.863730136305092 5.5718711838126183
leaf_count=557 126 99
internal_value=0.00230949 0.0932568
internal_weight=31.3902 11.4356
internal_count=782 225
is_linear=0
shrinkage=0.05


Tree=98
num_leaves=2
num_cat=0
split_feature=28
split_gain=106.293
threshold=-64.499999999999986
decision_type=2
left_child=-1
right_child=-2
leaf_value=-0.04973390714354526 0.18227623513120464
leaf_weight=24.475268077105287 6.1837750393897286
leaf_count=696 86
internal_value=-0.00291717
internal_weight=30.659
internal_count=782
is_linear=0
shrinkage=0.05


Tree=99
num_leaves=3
num_cat=0
split_feature=24 6
split_gain=145.745 0.236692
threshold=-88.499999999999986 1.2500000000000002
decision_type=2 2
left_child=-1 -2
right_child=1 -3
leaf_value=0.22807495526226684 -0.035009696229200089 -0.049848440374617775
leaf_weight=5.8834519088268307 3.433758586645129 22.18101603910327
leaf_count=78 99 605
internal_value=0.00363984 -0.0478849
internal_weight=31.4982 25.6148
internal_count=782 704
is_linear=0
shrinkage=0.05


Tree=100
num_leaves=3
num_cat=0
split_feature=32 32
split_gain=151.035 0.751098
threshold=-85.499999999999986 -83.499999999999986
decision_type=2 2
left_child=-1 -2
right_child=1 -3
leaf_value=0.26558590401801085 -0.025928011589091748 -0.049712458095293427
leaf_weight=4.5630922764539745 4.0516211837530163 22.206169281154871
leaf_count=64 81 648
internal_value=5.20305e-05 -0.0460675
internal_weight=30.8209 26.2578
internal_count=793 729
is_linear=0
shrinkage=0.05


Tree=101
num_leaves=3
num_cat=0
split_feature=30 14
split_gain=217.73 0.24311
threshold=4.9500000000000002 4.2500000000000009
decision_type=2 2
left_child=1 -1
right_child=-2 -3
leaf_value=-0.050067355399703965 0.33018796231932734 -0.035101001684491005
leaf_weight=24.429068638011817 4.4013683199882498 3.4157964512705794
leaf_count=658 35 100
internal_value=0.0033792 -0.048255
internal_weight=32.2462 27.8449
internal_count=793 758
is_linear=0
shrinkage=0.05


Tree=102
num_leaves=2
num_cat=0
split_feature=32
split_gain=168.693
threshold=-87.999999999999986
decision_type=2
left_child=-1
right_child=-2
leaf_value=0.30158829683753696 -0.049995639816804431
leaf_weight=3.9014504551887539 27.178180465474725
leaf_count=28 765
internal_value=-0.00583986
internal_weight=31.0796
internal_count=793
is_linear=0
shrinkage=0.05


Tree=103
num_leaves=3
num_cat=0
split_feature=12 12
split_gain=33.9728 113.864
threshold=-81.499999999999986 -78.499999999999986
decision_type=2 2
left_child=-1 -2
right_child=1 -3
leaf_value=-0.050170289006965067 0.27039947534494074 -0.049591427890110187
leaf_weight=18.774310365319256 4.150044471025466 8.4147229176014644
leaf_count=490 48 255
internal_value=-0.00756374 0.0560467
internal_weight=31.3391 12.5648
internal_count=793 303
is_linear=0
shrinkage=0.05


Tree=104
num_leaves=2
num_cat=0
split_feature=15
split_gain=203.716
threshold=-76.499999999999986
decision_type=2
left_child=-1
right_child=-2
leaf_value=-0.050111560192862198 0.32297402541419173
leaf_weight=27.304137133061889 4.2250668425112954
leaf_count=758 35
internal_value=-9.54051e-05
internal_weight=31.5292
internal_count=793
is_linear=0
shrinkage=0.05


Tree=105
num_leaves=2
num_cat=0
split_feature=7
split_gain=204.738
threshold=-74.499999999999986
decision_type=2
left_child=-1
right_child=-2
leaf_value=-0.049974791100165721 0.34398690538112936
leaf_weight=27.009558312594894 3.7565011121332637
leaf_count=761 32
internal_value=-0.00185112
internal_weight=30.7661
internal_count=793
is_linear=0
shrinkage=0.05


Tree=106
num_leaves=3
num_cat=0
split_feature=0 26
split_gain=87.1737 133.231
threshold=-78.536600271972574 -78.499999999999986
decision_type=2 2
left_child=-1 -2
right_child=1 -3
leaf_value=-0.050026433571101453 0.32156902138464738 -0.050233338206366156
leaf_weight=21.995624631643299 4.682603120803833 4.9581588581204397
leaf_count=598 79 116
internal_value=0.00490059 0.130286
internal_weight=31.6364 9.64076
internal_count=793 195
is_linear=0
shrinkage=0.05


Tree=107
num_leaves=3
num_cat=0
split_feature=32 2
split_gain=77.8297 125.997
threshold=-80.499999999999986 -77.66828891509563
decision_type=2 2
left_child=1 -1
right_child=-2 -3
leaf_value=-0.049592931598595132 -0.050122119761250507 0.32101667675196205
leaf_weight=4.9319207891821861 22.339781954884529 4.2824787199497241
leaf_count=143 589 61
internal_value=0.000289212 0.12258
internal_weight=31.5542 9.2144
internal_count=793 204
is_linear=0
shrinkage=0.05


Tree=108
num_leaves=2
num_cat=0
split_feature=1
split_gain=97.8242
threshold=-74.905421106935833
decision_type=2
left_child=-1
right_child=-2
leaf_value=-0.049925406260850271 0.14780007542204679
leaf_weight=23.435933530330662 8.5329578742384893
leaf_count=635 158
internal_value=0.0028298
internal_weight=31.9689
internal_count=793
is_linear=0
shrinkage=0.05


Tree=109
num_leaves=3
num_cat=0
split_feature=16 18
split_gain=152.56 0.906168
threshold=-67.499999999999986 -69.499999999999986
decision_type=2 2
left_child=1 -1
right_child=-2 -3
leaf_value=-0.049846921341515388 0.28445992614087562 -0.022516809381133627
leaf_weight=23.321695826947696 4.0070619918406001 3.5943382512778035
leaf_count=652 61 80
internal_value=-0.00335022 -0.0462217
internal_weight=30.9231 26.916
internal_count=793 732
is_linear=0
shrinkage=0.05


Tree=110
num_leaves=3
num_cat=0
split_feature=6 2
split_gain=154.974 8.03413
threshold=5.5500000000000007 -76.548696844993145
decision_type=2 2
left_child=1 -1
right_child=-2 -3
leaf_value=-0.049963902143172347 0.30032610943295879 0.028325238172217194
leaf_weight=24.39561581984163 3.8097619488835326 3.7741915937513104
leaf_count=658 48 87
internal_value=0.00100614 -0.0394514
internal_weight=31.9796 28.1698
internal_count=793 745
is_linear=0
shrinkage=0.05


Tree=111
num_leaves=3
num_cat=0
split_feature=17 19
split_gain=115.459 0.182988
threshold=-92.499999999999986 1.5000000000000002
decision_type=2 2
left_child=-1 -2
right_child=1 -3
leaf_value=0.19712955502439855 -0.049799872460327715 -0.037503373580723282
leaf_weight=5.9552843868732479 20.92944268882275 4.1186131834983817
leaf_count=57 612 124
internal_value=-0.000734851 -0.0478042
internal_weight=31.0033 25.0481
internal_count=793 736
is_linear=0
shrinkage=0.05


Tree=112
num_leaves=3
num_cat=0
split_feature=6 9
split_gain=99.7972 7.59194
threshold=5.2500000000000009 -90.499999999999986
decision_type=2 2
left_child=1 -1
right_child=-2 -3
leaf_value=0.024854375069736177 0.22460578033625733 -0.049864278814405284
leaf_weight=3.9835370760411086 4.1570900678634635 22.775713248178363
leaf_count=100 68 625
internal_value=-0.00328835 -0.0387166
internal_weight=30.9163 26.7593
internal_count=793 725
is_linear=0
shrinkage=0.05


Tree=113
num_leaves=2
num_cat=0
split_feature=33
split_gain=65.5402
threshold=-69.499999999999986
decision_type=2
left_child=-1
right_child=-2
leaf_value=-0.049604326209923624 0.10538380975915734
leaf_weight=20.543390128761533 10.211402222514151
leaf_count=625 168
internal_value=0.00183443
internal_weight=30.7548
internal_count=793
is_linear=0
shrinkage=0.05


Tree=114
num_leaves=3
num_cat=0
split_feature=25 21
split_gain=91.8947 3.75559
threshold=-90.499999999999986 -74.499999999999986
decision_type=2 2
left_child=-1 -2
right_child=1 -3
leaf_value=0.16463468114012528 -0.049800679438579042 0.0048576544883781464
leaf_weight=6.8690724074840572 21.398966230452068 3.6584450323134616
leaf_count=78 599 116
internal_value=0.00259897 -0.0417942
internal_weight=31.9265 25.0574
internal_count=793 715
is_linear=0
shrinkage=0.05


Tree=115
num_leaves=3
num_cat=0
split_feature=8 3
split_gain=201.09 3.90046
threshold=-86.499999999999986 -65.154651221866587
decision_type=2 2
left_child=-1 -2
right_child=1 -3
leaf_value=0.32285018675825095 -0.049774979683704201 0.0069985271518598546
leaf_weight=4.3842305243015316 23.333767805248506 3.4530798047780946
leaf_count=55 662 76
internal_value=0.00892425 -0.0424318
internal_weight=31.1711 26.7868
internal_count=793 738
is_linear=0
shrinkage=0.05


Tree=116
num_leaves=2
num_cat=0
split_feature=7
split_gain=136.639
threshold=-79.499999999999986
decision_type=2
left_child=-1
right_child=-2
leaf_value=-0.049895861004426278 0.22133967640315669
leaf_weight=25.645163536071781 5.6698032785207024
leaf_count=691 102
internal_value=-0.000765676
internal_weight=31.315
internal_count=793
is_linear=0
shrinkage=0.05


Tree=117
num_leaves=2
num_cat=0
split_feature=5
split_gain=148.265
threshold=-90.499999999999986
decision_type=2
left_child=-1
right_child=-2
leaf_value=0.24874788971845274 -0.049904131350515163
leaf_weight=4.9450169205665615 26.035495964810252
leaf_count=47 746
internal_value=-0.00221295
internal_weight=30.9805
internal_count=793
is_linear=0
shrinkage=0.05


Tree=118
num_leaves=2
num_cat=0
split_feature=0
split_gain=106.915
threshold=-88.276586156866969
decision_type=2
left_child=-1
right_child=-2
leaf_value=0.16019932238220469 -0.049646893230863104
leaf_weight=8.115526080131529 24.078629506751895
leaf_count=69 724
internal_value=0.00323086
internal_weight=32.1942
internal_count=793
is_linear=0
shrinkage=0.05


Tree=119
num_leaves=2
num_cat=0
split_feature=33
split_gain=175.995
threshold=-65.499999999999986
decision_type=2
left_child=-1
right_child=-2
leaf_value=-0.050098551946268714 0.28687010382704431
leaf_weight=27.011882448568944 4.5238347798585883
leaf_count=748 45
internal_value=-0.00173915
internal_weight=31.5357
internal_count=793
is_linear=0
shrinkage=0.05


Tree=120
num_leaves=2
num_cat=0
split_feature=12
split_gain=121.224
threshold=-90.499999999999986
decision_type=2
left_child=-1
right_child=-2
leaf_value=0.20838334865994088 -0.049741575531549037
leaf_weight=5.5354465246200588 25.508874660357833
leaf_count=60 733
internal_value=-0.00369468
internal_weight=31.0443
internal_count=793
is_linear=0
shrinkage=0.05


Tree=121
num_leaves=2
num_cat=0
split_feature=9
split_gain=101.348
threshold=-90.499999999999986
decision_type=2
left_child=-1
right_child=-2
leaf_value=0.1637697289512737 -0.050035621304069945
leaf_weight=7.1884578838944462 24.208522122353315
leaf_count=130 663
internal_value=-0.00106312
internal_weight=31.397
internal_count=793
is_linear=0
shrinkage=0.05


Tree=122
num_leaves=4
num_cat=0
split_feature=22 32 30
split_gain=60.3906 104.345 0.184516
threshold=2.5500000000000003 -70.499999999999986 2.5500000000000003
decision_type=2 2 2
left_child=2 -2 -1
right_child=1 -3 -4
leaf_value=-0.049942557842501019 -0.049554663080860907 0.28547225905914375 -0.037117965131059742
leaf_weight=18.51492244005204 5.0825216434895992 4.2781325727701169 3.8491991069167844
leaf_count=495 153 55 90
internal_value=-0.00311395 0.103494 -0.0477647
internal_weight=31.7248 9.36065 22.3641
internal_count=793 208 585
is_linear=0
shrinkage=0.05


Tree=123
num_leaves=2
num_cat=0
split_feature=21
split_gain=104.66
threshold=-88.499999999999986
decision_type=2
left_child=-1
right_child=-2
leaf_value=0.17381004573752681 -0.050099681219009977
leaf_weight=6.6593062542378929 24.126263251528144
leaf_count=139 654
internal_value=-0.00164382
internal_weight=30.7856
internal_count=793
is_linear=0
shrinkage=0.05


Tree=124
num_leaves=2
num_cat=0
split_feature=8
split_gain=172.012
threshold=-84.499999999999986
decision_type=2
left_child=-1
right_child=-2
leaf_value=0.24191980308683397 -0.050043512409190097
leaf_weight=6.2792470753192928 25.657744508236647
leaf_count=103 690
internal_value=0.00733985
internal_weight=31.937
internal_count=793
is_linear=0
shrinkage=0.05


Tree=125
num_leaves=3
num_cat=0
split_feature=32 3
split_gain=111.594 0.784421
threshold=-85.499999999999986 -85.921965013891239
decision_type=2 2
left_child=-1 -2
right_child=1 -3
leaf_value=0.19854719950124061 -0.024529834703597875 -0.049565691779435088
leaf_weight=5.752117961645129 3.8056595027446773 21.126260994002223
leaf_count=64 68 661
internal_value=8.51635e-06 -0.0457706
internal_weight=30.684 24.9319
internal_count=793 729
is_linear=0
shrinkage=0.05


Tree=126
num_leaves=3
num_cat=0
split_feature=14 14
split_gain=131.281 0.883281
threshold=4.8500000000000005 4.0500000000000007
decision_type=2 2
left_child=1 -1
right_child=-2 -3
leaf_value=-0.049986882363428561 0.21108481055764947 -0.023170851931894481
leaf_weight=22.156718447804458 6.1357870101928702 3.6792385056614867
leaf_count=626 62 105
internal_value=0.0031609 -0.0461935
internal_weight=31.9717 25.836
internal_count=793 731
is_linear=0
shrinkage=0.05


Tree=127
num_leaves=2
num_cat=0
split_feature=29
split_gain=123.246
threshold=-89.499999999999986
decision_type=2
left_child=-1
right_child=-2
leaf_value=0.22276314586671525 -0.049870815336355456
leaf_weight=4.9484697878360775 25.535022569820285
leaf_count=33 760
internal_value=-0.0055918
internal_weight=30.4835
internal_count=793
is_linear=0
shrinkage=0.05


Tree=128
num_leaves=3
num_cat=0
split_feature=32 28
split_gain=34.9802 76.2671
threshold=-78.499999999999986 -80.499999999999986
decision_type=2 2
left_child=1 -1
right_child=-2 -3
leaf_value=-0.049603160660024376 -0.04992684193624139 0.20479539283822251
leaf_weight=6.8839120417833328 18.86769500747323 5.1465774253010768
leaf_count=209 541 43
internal_value=-0.00742674 0.0591725
internal_weight=30.8982 12.0305
internal_count=793 252
is_linear=0
shrinkage=0.05


Tree=129
num_leaves=3
num_cat=0
split_feature=18 31
split_gain=114.616 0.171909
threshold=-67.499999999999986 -89.499999999999986
decision_type=2 2
left_child=1 -1
right_child=-2 -3
leaf_value=-0.037463209005142543 0.19197226919636479 -0.049850439539944905
leaf_weight=3.7864566743373933 6.2141120657324782 21.185083635151386
leaf_count=94 53 646
internal_value=-0.000160372 -0.0479985
internal_weight=31.1857 24.9715
internal_count=793 740
is_linear=0
shrinkage=0.05


Tree=130
num_leaves=2
num_cat=0
split_feature=9
split_gain=157.728
threshold=-69.499999999999986
decision_type=2
left_child=-1
right_child=-2
leaf_value=-0.049920205122266283 0.26816515544936792
leaf_weight=25.809223080053929 4.5904140174388877
leaf_count=763 30
internal_value=-0.00186695
internal_weight=30.3996
internal_count=793
is_linear=0
shrinkage=0.05


Tree=131
num_leaves=2
num_cat=0
split_feature=7
split_gain=90.875
threshold=-81.499999999999986
decision_type=2
left_child=-1
right_child=-2
leaf_value=-0.049886693415636042 0.13630773998171897
leaf_weight=22.422348849475387 9.258938165381549
leaf_count=645 148
internal_value=0.00450835
internal_weight=31.6813
internal_count=793
is_linear=0
shrinkage=0.05


Tree=132
num_leaves=2
num_cat=0
split_feature=10
split_gain=70.7154
threshold=-76.499999999999986
decision_type=2
left_child=-1
right_child=-2
leaf_value=-0.04987363664140692 0.11252446926234783
leaf_weight=21.788865327835087 9.682029113173483
leaf_count=631 162
internal_value=6.72814e-05
internal_weight=31.4709
internal_count=793
is_linear=0
shrinkage=0.05


Tree=133
num_leaves=3
num_cat=0
split_feature=32 30
split_gain=97.1326 0.216828
threshold=-83.499999999999986 0.8500000000000002
decision_type=2 2
left_child=-1 -2
right_child=1 -3
leaf_value=0.1530447923142374 -0.03572350026985574 -0.049942202566673956
leaf_weight=8.0482746362686175 3.510092286393049 20.303599279373884
leaf_count=145 95 553
internal_value=0.00285706 -0.047874
internal_weight=31.862 23.8137
internal_count=793 648
is_linear=0
shrinkage=0.05


Tree=134
num_leaves=3
num_cat=0
split_feature=14 6
split_gain=90.1991 2.40903
threshold=4.6500000000000012 1.1500000000000001
decision_type=2 2
left_child=1 -1
right_child=-2 -3
leaf_value=-0.0034299935173170365 0.17798979142283333 -0.049802895399221427
leaf_weight=3.2487362101674142 5.6098838150501242 21.801488775759935
leaf_count=98 70 625
internal_value=-0.00320998 -0.0438151
internal_weight=30.6601 25.0502
internal_count=793 723
is_linear=0
shrinkage=0.05


Tree=135
num_leaves=2
num_cat=0
split_feature=8
split_gain=123.97
threshold=-68.999999999999986
decision_type=2
left_child=-1
right_child=-2
leaf_value=-0.049746802333710628 0.19333839839099698
leaf_weight=25.159243784844879 6.6262801159173241
leaf_count=730 63
internal_value=0.000908108
internal_weight=31.7855
internal_count=793
is_linear=0
shrinkage=0.05


Tree=136
num_leaves=3
num_cat=0
split_feature=17 30
split_gain=92.3362 0.177024
threshold=-92.499999999999986 0.8500000000000002
decision_type=2 2
left_child=-1 -2
right_child=1 -3
leaf_value=0.15959079239593907 -0.037270283509535984 -0.04964252140870859
leaf_weight=6.9479180723428753 3.9596821088343885 19.818905089050531
leaf_count=57 117 619
internal_value=-0.000736013 -0.0476099
internal_weight=30.7265 23.7786
internal_count=793 736
is_linear=0
shrinkage=0.05


Tree=137
num_leaves=2
num_cat=0
split_feature=7
split_gain=70.5977
threshold=-91.499999999999986
decision_type=2
left_child=-1
right_child=-2
leaf_value=0.12008048086418877 -0.049822589328791037
leaf_weight=8.4330925866961497 22.231439234688878
leaf_count=165 628
internal_value=-0.00307587
internal_weight=30.6645
internal_count=793
is_linear=0
shrinkage=0.05


Tree=138
num_leaves=4
num_cat=0
split_feature=8 26 0
split_gain=62.6782 155.655 0.227767
threshold=-75.499999999999986 -80.499999999999986 -81.419547139643967
decision_type=2 2 2
left_child=2 -2 -1
right_child=1 -3 -4
leaf_value=-0.050234855589560257 0.3573745420356978 -0.049702253958611241 -0.035631298312368886
leaf_weight=17.080061269924048 3.7864949367940426 6.1766850948333722 3.5869530942291048
leaf_count=437 65 184 107
internal_value=0.00190681 0.104941 -0.0477321
internal_weight=30.6302 9.96318 20.667
internal_count=793 249 544
is_linear=0
shrinkage=0.05


Tree=139
num_leaves=3
num_cat=0
split_feature=21 21
split_gain=183.958 3.8973
threshold=-91.499999999999986 -74.499999999999986
decision_type=2 2
left_child=-1 -2
right_child=1 -3
leaf_value=0.3209235136439525 -0.050185319318764854 0.0051793620881314048
leaf_weight=3.9711806029081371 24.123484201729305 3.6365933567285493
leaf_count=30 647 116
internal_value=0.00260424 -0.0429088
internal_weight=31.7313 27.7601
internal_count=793 763
is_linear=0
shrinkage=0.05


Tree=140
num_leaves=2
num_cat=0
split_feature=2
split_gain=228.36
threshold=-74.436100981879022
decision_type=2
left_child=-1
right_child=-2
leaf_value=-0.049794339150210448 0.3226652641960428
leaf_weight=26.326855063438419 4.8776694331318131
leaf_count=756 37
internal_value=0.00840482
internal_weight=31.2045
internal_count=793
is_linear=0
shrinkage=0.05


Tree=141
num_leaves=3
num_cat=0
split_feature=22 6
split_gain=197.364 0.219068
threshold=5.1500000000000012 1.1500000000000001
decision_type=2 2
left_child=1 -1
right_child=-2 -3
leaf_value=-0.035888571905924892 0.33441438237000543 -0.049850320890091823
leaf_weight=3.6118796616792741 3.8495527654886237 23.667546777054667
leaf_count=105 35 653
internal_value=-0.000710401 -0.0480259
internal_weight=31.129 27.2794
internal_count=793 758
is_linear=0
shrinkage=0.05


Tree=142
num_leaves=3
num_cat=0
split_feature=9 21
split_gain=165.898 2.14397
threshold=-92.499999999999986 -88.499999999999986
decision_type=2 2
left_child=-1 -2
right_child=1 -3
leaf_value=0.3154029752850751 -0.0087155357296079938 -0.050287667298238137
leaf_weight=3.628629237413409 3.6224323790520456 23.320936560630798
leaf_count=28 112 653
internal_value=-0.00195755 -0.0447229
internal_weight=30.572 26.9434
internal_count=793 765
is_linear=0
shrinkage=0.05


Tree=143
num_leaves=2
num_cat=0
split_feature=0
split_gain=89.5956
threshold=-88.276586156866969
decision_type=2
left_child=-1
right_child=-2
leaf_value=0.13621071039569491 -0.049556787728653004
leaf_weight=9.0706020593643206 22.818079642951488
leaf_count=69 724
internal_value=0.00326337
internal_weight=31.8887
internal_count=793
is_linear=0
shrinkage=0.05


Tree=144
num_leaves=3
num_cat=0
split_feature=26 34
split_gain=124.995 3.50547
threshold=-1.0000000180025095e-35 -62.499999999999993
decision_type=2 2
left_child=1 -1
right_child=-2 -3
leaf_value=-0.04960573504262758 0.24291384319126608 0.0050180382788042703
leaf_weight=23.386301111429937 4.4693125635385504 3.334337953478097
leaf_count=728 31 34
internal_value=-0.00180792 -0.0427649
internal_weight=31.19 26.7206
internal_count=793 762
is_linear=0
shrinkage=0.05


Tree=145
num_leaves=2
num_cat=0
split_feature=26
split_gain=102.131
threshold=-73.499999999999986
decision_type=2
left_child=-1
right_child=-2
leaf_value=-0.050076083267914018 0.17515285977008904
leaf_weight=24.358400309458379 6.3440317269414654
leaf_count=695 98
internal_value=-0.00351568
internal_weight=30.7024
internal_count=793
is_linear=0
shrinkage=0.05


Tree=146
num_leaves=2
num_cat=0
split_feature=18
split_gain=85.287
threshold=-87.499999999999986
decision_type=2
left_child=-1
right_child=-2
leaf_value=0.13923410914004655 -0.049695203538184261
leaf_weight=8.0489812493324298 23.164455516263843
leaf_count=97 696
internal_value=-0.000955091
internal_weight=31.2134
internal_count=793
is_linear=0
shrinkage=0.05


Tree=147
num_leaves=3
num_cat=0
split_feature=28 28
split_gain=43.9852 70.5719
threshold=-69.499999999999986 -66.499999999999986
decision_type=2 2
left_child=-1 -2
right_child=1 -3
leaf_value=-0.049663893610822372 0.19192566197873501 -0.050165336515442485
leaf_weight=19.463152866810564 6.0729377567768097 5.9629362486302835
leaf_count=594 64 135
internal_value=-0.00318092 0.0719318
internal_weight=31.499 12.0359
internal_count=793 199
is_linear=0
shrinkage=0.05


Tree=148
num_leaves=2
num_cat=0
split_feature=26
split_gain=101.235
threshold=-87.499999999999986
decision_type=2
left_child=-1
right_child=-2
leaf_value=0.16918136231006253 -0.049964596302402131
leaf_weight=6.76988407224417 23.784637816250324
leaf_count=114 679
internal_value=-0.00138748
internal_weight=30.5545
internal_count=793
is_linear=0
shrinkage=0.05


Tree=149
num_leaves=2
num_cat=0
split_feature=34
split_gain=136.824
threshold=-63.499999999999993
decision_type=2
left_child=-1
right_child=-2
leaf_value=-0.049949591525334951 0.19498748020708698
leaf_weight=24.504196077585224 7.4302071034908286
leaf_count=695 98
internal_value=0.00701955
internal_weight=31.9344
internal_count=793
is_linear=0
shrinkage=0.05


Tree=150
num_leaves=3
num_cat=0
split_feature=26 26
split_gain=60.145 1.83339
threshold=-85.499999999999986 -82.499999999999986
decision_type=2 2
left_child=-1 -2
right_child=1 -3
leaf_value=0.11370253795095098 -0.012178367848830645 -0.050122781793016338
leaf_weight=8.4240314438939112 3.9216846823692348 18.093539739027619
leaf_count=181 93 519
internal_value=6.10985e-05 -0.0433934
internal_weight=30.4393 22.0152
internal_count=793 612
is_linear=0
shrinkage=0.05


Tree=151
num_leaves=2
num_cat=0
split_feature=0
split_gain=98.8166
threshold=-75.707827397585064
decision_type=2
left_child=-1
right_child=-2
leaf_value=-0.049773734501217422 0.15083082145712584
leaf_weight=23.285847991704944 8.3364900685846788
leaf_count=717 76
internal_value=0.00309016
internal_weight=31.6223
internal_count=793
is_linear=0
shrinkage=0.05


Tree=152
num_leaves=2
num_cat=0
split_feature=28
split_gain=106.184
threshold=-88.499999999999986
decision_type=2
left_child=-1
right_child=-2
leaf_value=0.19511027083772622 -0.049767583179990554
leaf_weight=5.4077580124139812 24.403452696278691
leaf_count=28 765
internal_value=-0.00532463
internal_weight=29.8112
internal_count=793
is_linear=0
shrinkage=0.05


Tree=153
num_leaves=3
num_cat=0
split_feature=8 10
split_gain=32.6365 60.9128
threshold=-80.499999999999986 -82.499999999999986
decision_type=2 2
left_child=1 -1
right_child=-2 -3
leaf_value=-0.05034022092516182 -0.049677961012094207 0.17376408248572603
leaf_weight=6.3758117612451315 18.201341591775417 5.7764053773134965
leaf_count=166 568 59
internal_value=-0.00729514 0.0561308
internal_weight=30.3536 12.1522
internal_count=793 225
is_linear=0
shrinkage=0.05


Tree=154
num_leaves=2
num_cat=0
split_feature=12
split_gain=105.078
threshold=-70.499999999999986
decision_type=2
left_child=-1
right_child=-2
leaf_value=-0.049775976487247769 0.17189523067666224
leaf_weight=23.957708217203621 6.8816760741174212
leaf_count=751 42
internal_value=-0.000289665
internal_weight=30.8394
internal_count=793
is_linear=0
shrinkage=0.05


Tree=155
num_leaves=2
num_cat=0
split_feature=8
split_gain=124.358
threshold=-59.999999999999993
decision_type=2
left_child=-1
right_child=-2
leaf_value=-0.049802230935010044 0.21499840858070463
leaf_weight=24.428573690354828 5.4169272370636454
leaf_count=763 30
internal_value=-0.00171915
internal_weight=29.8455
internal_count=793
is_linear=0
shrinkage=0.05


Tree=156
num_leaves=2
num_cat=0
split_feature=7
split_gain=76.0167
threshold=-81.499999999999986
decision_type=2
left_child=-1
right_child=-2
leaf_value=-0.049786828662263007 0.11537896764097617
leaf_weight=21.265633709728721 10.359895717352627
leaf_count=645 148
internal_value=0.00429741
internal_weight=31.6255
internal_count=793
is_linear=0
shrinkage=0.05


Tree=157
num_leaves=2
num_cat=0
split_feature=10
split_gain=59.6363
threshold=-76.499999999999986
decision_type=2
left_child=-1
right_child=-2
leaf_value=-0.04975836897305775 0.095631319749554675
leaf_weight=20.585892230272297 10.729201419278978
leaf_count=631 162
internal_value=3.41507e-05
internal_weight=31.3151
internal_count=793
is_linear=0
shrinkage=0.05


Tree=158
num_leaves=2
num_cat=0
split_feature=23
split_gain=85.4883
threshold=-80.499999999999986
decision_type=2
left_child=-1
right_child=-2
leaf_value=-0.049910961922853408 0.13038189027765842
leaf_weight=22.485865861177448 9.291643410921095
leaf_count=626 167
internal_value=0.0027854
internal_weight=31.7775
internal_count=793
is_linear=0
shrinkage=0.05


Tree=159
num_leaves=2
num_cat=0
split_feature=18
split_gain=98.8578
threshold=-68.499999999999986
decision_type=2
left_child=-1
right_child=-2
leaf_value=-0.049778532669335039 0.17123813356822451
leaf_weight=23.891401872038845 6.4185661226510993
leaf_count=715 78
internal_value=-0.00295341
internal_weight=30.31
internal_count=793
is_linear=0
shrinkage=0.05


Tree=160
num_leaves=2
num_cat=0
split_feature=8
split_gain=99.7457
threshold=-68.999999999999986
decision_type=2
left_child=-1
right_child=-2
leaf_value=-0.049646032099275345 0.15775104082236616
leaf_weight=23.810904722660784 7.66306916065514
leaf_count=730 63
internal_value=0.000828697
internal_weight=31.474
internal_count=793
is_linear=0
shrinkage=0.05


Tree=161
num_leaves=2
num_cat=0
split_feature=16
split_gain=77.5737
threshold=-90.499999999999986
decision_type=2
left_child=-1
right_child=-2
leaf_value=0.13013316614620898 -0.049509226412903812
leaf_weight=8.2488654553890246 22.135699955746531
leaf_count=58 735
internal_value=-0.000717881
internal_weight=30.3846
internal_count=793
is_linear=0
shrinkage=0.05


Tree=162
num_leaves=3
num_cat=0
split_feature=5 33
split_gain=46.1412 65.644
threshold=-86.499999999999986 -75.499999999999986
decision_type=2 2
left_child=1 -1
right_child=-2 -3
leaf_value=0.19271358314828579 -0.049826372782898282 -0.049928152311885077
leaf_weight=5.8894562385976315 19.260999219492078 5.2858909927308577
leaf_count=100 555 138
internal_value=-0.00291238 0.0778862
internal_weight=30.4363 11.1753
internal_count=793 238
is_linear=0
shrinkage=0.05


Tree=163
num_leaves=4
num_cat=0
split_feature=14 3 14
split_gain=51.6399 115.01 0.217732
threshold=3.4500000000000006 -68.349229735756182 2.7500000000000004
decision_type=2 2 2
left_child=2 -2 -1
right_child=1 -3 -4
leaf_value=-0.050173959376407277 -0.049365906629156631 0.27543258963046302 -0.035711320746594909
leaf_weight=15.869259819388395 6.4701441749930382 4.7059873379766923 3.5506261214613906
leaf_count=411 221 53 108
internal_value=0.00169248 0.0873397 -0.0475636
internal_weight=30.596 11.1761 19.4199
internal_count=793 274 519
is_linear=0
shrinkage=0.05


Tree=164
num_leaves=3
num_cat=0
split_feature=25 25
split_gain=133.497 3.29335
threshold=-91.499999999999986 -77.499999999999986
decision_type=2 2
left_child=-1 -2
right_child=1 -3
leaf_value=0.23899447641343882 -0.050066327678841671 -0.0014624372313203321
leaf_weight=5.0148269236087826 22.230411149561412 4.1665425412356809
leaf_count=31 628 134
internal_value=0.00248671 -0.0424195
internal_weight=31.4118 26.397
internal_count=793 762
is_linear=0
shrinkage=0.05


Tree=165
num_leaves=2
num_cat=0
split_feature=31
split_gain=127.247
threshold=-66.499999999999986
decision_type=2
left_child=-1
right_child=-2
leaf_value=-0.04964632975943397 0.18607581830001241
leaf_weight=23.478480715304617 7.5711139235645524
leaf_count=725 68
internal_value=0.00781083
internal_weight=31.0496
internal_count=793
is_linear=0
shrinkage=0.05


Tree=166
num_leaves=3
num_cat=0
split_feature=22 34
split_gain=154.366 0.228623
threshold=5.9500000000000002 -85.499999999999986
decision_type=2 2
left_child=1 -1
right_child=-2 -3
leaf_value=-0.035017107016076514 0.26547039964909769 -0.049724663516437173
leaf_weight=3.36680735647679 4.6264611333608618 22.780729040503502
leaf_count=88 30 675
internal_value=-0.000730206 -0.0478561
internal_weight=30.774 26.1475
internal_count=793 763
is_linear=0
shrinkage=0.05


Tree=167
num_leaves=2
num_cat=0
split_feature=24
split_gain=105.476
threshold=-88.499999999999986
decision_type=2
left_child=-1
right_child=-2
leaf_value=0.17927533005482005 -0.050134498710667032
leaf_weight=6.3442672044038799 23.829409468919039
leaf_count=82 711
internal_value=-0.00187736
internal_weight=30.1737
internal_count=793
is_linear=0
shrinkage=0.05


Tree=168
num_leaves=2
num_cat=0
split_feature=5
split_gain=76.9489
threshold=-88.999999999999986
decision_type=2
left_child=-1
right_child=-2
leaf_value=0.11857799437861781 -0.049581652951463759
leaf_weight=9.9080366790294665 21.706383949145675
leaf_count=75 718
internal_value=0.00309918
internal_weight=31.6144
internal_count=793
is_linear=0
shrinkage=0.05


Tree=169
num_leaves=2
num_cat=0
split_feature=33
split_gain=110.452
threshold=-65.499999999999986
decision_type=2
left_child=-1
right_child=-2
leaf_value=-0.049930245766937324 0.18507266441555581
leaf_weight=24.41886744834483 6.2873045317828646
leaf_count=748 45
internal_value=-0.00179032
internal_weight=30.7062
internal_count=793
is_linear=0
shrinkage=0.05


Tree=170
num_leaves=3
num_cat=0
split_feature=1 1
split_gain=86.3083 0.959842
threshold=-92.014069234136812 -87.865459906797398
decision_type=2 2
left_child=-1 -2
right_child=1 -3
leaf_value=0.16446215627153446 -0.019971235865826057 -0.04957580434798671
leaf_weight=6.1251964569091824 3.2403147518634823 20.95858021825552
leaf_count=52 74 667
internal_value=-0.00317861 -0.0456388
internal_weight=30.3241 24.1989
internal_count=793 741
is_linear=0
shrinkage=0.05


Tree=171
num_leaves=2
num_cat=0
split_feature=9
split_gain=78.5594
threshold=-90.499999999999986
decision_type=2
left_child=-1
right_child=-2
leaf_value=0.12817208929703458 -0.050029440976292097
leaf_weight=8.536659814417364 22.446865787729621
leaf_count=130 663
internal_value=-0.000909668
internal_weight=30.9835
internal_count=793
is_linear=0
shrinkage=0.05


Tree=172
num_leaves=4
num_cat=0
split_feature=22 32 14
split_gain=48.1806 90.273 0.191789
threshold=2.5500000000000003 -67.499999999999986 1.1500000000000001
decision_type=2 2 2
left_child=2 -2 -1
right_child=1 -3 -4
leaf_value=-0.036772269207025497 -0.049656310282733047 0.24478466850690622 -0.049927070491353948
leaf_weight=3.8486161883920493 5.7275114096701145 4.7678001839667541 16.816042626276612
leaf_count=108 177 31 477
internal_value=-0.00317968 0.0840394 -0.0475089
internal_weight=31.16 10.4953 20.6647
internal_count=793 208 585
is_linear=0
shrinkage=0.05


Tree=173
num_leaves=3
num_cat=0
split_feature=23 24
split_gain=95.2338 3.79714
threshold=-91.499999999999986 -86.999999999999986
decision_type=2 2
left_child=-1 -2
right_child=1 -3
leaf_value=0.19109139231323324 0.006676219788934081 -0.04984523396187826
leaf_weight=5.3104693889617947 3.423347212374213 21.552958531305194
leaf_count=81 64 648
internal_value=-0.00116739 -0.0420718
internal_weight=30.2868 24.9763
internal_count=793 712
is_linear=0
shrinkage=0.05


Tree=174
num_leaves=2
num_cat=0
split_feature=8
split_gain=115.072
threshold=-84.499999999999986
decision_type=2
left_child=-1
right_child=-2
leaf_value=0.16629688856424021 -0.04986858894636307
leaf_weight=8.3403585627675074 23.50998654589057
leaf_count=103 690
internal_value=0.00671603
internal_weight=31.8503
internal_count=793
is_linear=0
shrinkage=0.05


Tree=175
num_leaves=3
num_cat=0
split_feature=2 28
split_gain=58.3744 90.3268
threshold=-85.811403830007578 -75.499999999999986
decision_type=2 2
left_child=1 -1
right_child=-2 -3
leaf_value=0.24541511904836655 -0.049991564650027104 -0.049596333440953627
leaf_weight=5.1325245220214128 19.901133110746741 5.2413970511406678
leaf_count=51 590 152
internal_value=0.000113645 0.0962979
internal_weight=30.2751 10.3739
internal_count=793 203
is_linear=0
shrinkage=0.05


Tree=176
num_leaves=2
num_cat=0
split_feature=9
split_gain=86.0085
threshold=-77.499999999999986
decision_type=2
left_child=-1
right_child=-2
leaf_value=-0.049680264414374009 0.13368137965634055
leaf_weight=22.281276574358348 8.9697648137807828
leaf_count=723 70
internal_value=0.00292768
internal_weight=31.251
internal_count=793
is_linear=0
shrinkage=0.05


Tree=177
num_leaves=2
num_cat=0
split_feature=32
split_gain=86.9495
threshold=-87.999999999999986
decision_type=2
left_child=-1
right_child=-2
leaf_value=0.16326187572789586 -0.049662708995408179
leaf_weight=6.0514537096023586 23.082004245370626
leaf_count=28 765
internal_value=-0.00541251
internal_weight=29.1335
internal_count=793
is_linear=0
shrinkage=0.05


Tree=178
num_leaves=3
num_cat=0
split_feature=8 5
split_gain=29.5661 48.4106
threshold=-80.499999999999986 -85.499999999999986
decision_type=2 2
left_child=1 -1
right_child=-2 -3
leaf_value=-0.050090180471795379 -0.049594071211178654 0.1469061205325127
leaf_weight=6.0469644069671631 17.278784653171897 6.4324931576848048
leaf_count=170 568 55
internal_value=-0.00721972 0.0513982
internal_weight=29.7582 12.4795
internal_count=793 225
is_linear=0
shrinkage=0.05


Tree=179
num_leaves=2
num_cat=0
split_feature=12
split_gain=87.4856
threshold=-70.499999999999986
decision_type=2
left_child=-1
right_child=-2
leaf_value=-0.049682364030086017 0.14579272017128883
leaf_weight=22.692407809197906 7.6547337081283322
leaf_count=751 42
internal_value=-0.000354238
internal_weight=30.3471
internal_count=793
is_linear=0
shrinkage=0.05


Tree=180
num_leaves=2
num_cat=0
split_feature=10
split_gain=103.325
threshold=-66.499999999999986
decision_type=2
left_child=-1
right_child=-2
leaf_value=-0.049702444372935715 0.18210159564363693
leaf_weight=23.10736317187548 6.0700971670448771
leaf_count=762 31
internal_value=-0.00145524
internal_weight=29.1775
internal_count=793
is_linear=0
shrinkage=0.05


Tree=181
num_leaves=2
num_cat=0
split_feature=7
split_gain=64.7175
threshold=-81.499999999999986
decision_type=2
left_child=-1
right_child=-2
leaf_value=-0.049690425807197604 0.099492473221238831
leaf_weight=20.149420343339447 11.372632769867776
leaf_count=645 148
internal_value=0.00411142
internal_weight=31.5221
internal_count=793
is_linear=0
shrinkage=0.05


Tree=182
num_leaves=3
num_cat=0
split_feature=32 32
split_gain=53.8648 98.1735
threshold=-80.499999999999986 -82.499999999999986
decision_type=2 2
left_child=1 -1
right_child=-2 -3
leaf_value=-0.05021222980100485 -0.049931355447694191 0.24402419717446622
leaf_weight=6.088972695171833 19.708089800551534 5.3000945448875445
leaf_count=162 589 42
internal_value=7.21332e-05 0.0866579
internal_weight=31.0972 11.3891
internal_count=793 204
is_linear=0
shrinkage=0.05


Tree=183
num_leaves=3
num_cat=0
split_feature=8 0
split_gain=77.3998 0.205125
threshold=-73.499999999999986 -78.536600271972574
decision_type=2 2
left_child=1 -1
right_child=-2 -3
leaf_value=-0.049708743335949442 0.12412971492179679 -0.035516558766168813
leaf_weight=19.020686373114589 9.2811067178845388 3.3618465587496784
leaf_count=580 136 77
internal_value=0.00271131 -0.0476065
internal_weight=31.6636 22.3825
internal_count=793 657
is_linear=0
shrinkage=0.05


Tree=184
num_leaves=3
num_cat=0
split_feature=16 6
split_gain=83.0231 0.940264
threshold=-67.499999999999986 1.1500000000000001
decision_type=2 2
left_child=1 -1
right_child=-2 -3
leaf_value=-0.021383960302982966 0.15928285676767895 -0.049759252289701898
leaf_weight=3.5146142635494533 6.2474601566791526 20.210971552878618
leaf_count=106 61 626
internal_value=-0.0028601 -0.0455836
internal_weight=29.973 23.7256
internal_count=793 732
is_linear=0
shrinkage=0.05


Tree=185
num_leaves=2
num_cat=0
split_feature=25
split_gain=73.8213
threshold=-77.499999999999986
decision_type=2
left_child=-1
right_child=-2
leaf_value=-0.049878132869297605 0.11796929898873253
leaf_weight=21.649071365594867 9.3929003886878473
leaf_count=659 134
internal_value=0.000889144
internal_weight=31.042
internal_count=793
is_linear=0
shrinkage=0.05


Tree=186
num_leaves=2
num_cat=0
split_feature=18
split_gain=65.8381
threshold=-91.499999999999986
decision_type=2
left_child=-1
right_child=-2
leaf_value=0.11194284594661599 -0.049427196388850028
leaf_weight=9.051957309246065 20.948744030669332
leaf_count=58 735
internal_value=-0.000715914
internal_weight=30.0007
internal_count=793
is_linear=0
shrinkage=0.05


Tree=187
num_leaves=4
num_cat=0
split_feature=30 5 30
split_gain=55.9428 4.54306 0.214438
threshold=3.0500000000000003 -87.499999999999986 2.4500000000000006
decision_type=2 2 2
left_child=1 -1 -3
right_child=-2 2 -4
leaf_value=0.0048505428197402264 0.13821076313589994 -0.049602461421032182 -0.034572630353154485
leaf_weight=5.3584039360284867 5.6998795568943015 15.928617872297766 3.1754823401570311
leaf_count=129 82 507 75
internal_value=-0.00283299 -0.0357237 -0.0471386
internal_weight=30.1624 24.4625 19.1041
internal_count=793 711 582
is_linear=0
shrinkage=0.05


Tree=188
num_leaves=4
num_cat=0
split_feature=8 28 0
split_gain=48.1449 80.6072 0.24507
threshold=-75.499999999999986 -68.499999999999986 -81.419547139643967
decision_type=2 2 2
left_child=2 -2 -1
right_child=1 -3 -4
leaf_value=-0.050085934350372091 -0.049390822285857262 0.21568893561619196 -0.034363627657621396
leaf_weight=15.67607654258609 5.7636469732969999 5.7020249236375076 3.3066603019833591
leaf_count=437 196 53 107
internal_value=0.00145949 0.0823794 -0.0473819
internal_weight=30.4484 11.4657 18.9827
internal_count=793 249 544
is_linear=0
shrinkage=0.05


Tree=189
num_leaves=3
num_cat=0
split_feature=2 7
split_gain=87.7988 6.87833
threshold=-90.024598215041735 -91.499999999999986
decision_type=2 2
left_child=-1 -2
right_child=1 -3
leaf_value=0.18497793993618514 0.013656032703631691 -0.049827650312441213
leaf_weight=5.4312734603881863 5.3939608633518246 20.148436544463038
leaf_count=30 144 619
internal_value=0.00240129 -0.0363956
internal_weight=30.9737 25.5424
internal_count=793 763
is_linear=0
shrinkage=0.05


Tree=190
num_leaves=2
num_cat=0
split_feature=2
split_gain=140.459
threshold=-74.436100981879022
decision_type=2
left_child=-1
right_child=-2
leaf_value=-0.049647821579917699 0.20704634999938493
leaf_weight=23.918383687734607 6.8566351644694796
leaf_count=756 37
internal_value=0.00752194
internal_weight=30.775
internal_count=793
is_linear=0
shrinkage=0.05


Tree=191
num_leaves=3
num_cat=0
split_feature=22 2
split_gain=118.708 0.256165
threshold=5.9500000000000002 -76.134938779657574
decision_type=2 2
left_child=1 -1
right_child=-2 -3
leaf_value=-0.049625850324849355 0.20845049971594706 -0.033435967157708725
leaf_weight=21.706392958760269 5.5361329764127722 3.0606405027210704
leaf_count=676 30 87
internal_value=-0.000842286 -0.0476517
internal_weight=30.3032 24.767
internal_count=793 763
is_linear=0
shrinkage=0.05


Tree=192
num_leaves=3
num_cat=0
split_feature=9 26
split_gain=107.678 2.46395
threshold=-92.499999999999986 -87.499999999999986
decision_type=2 2
left_child=-1 -2
right_child=1 -3
leaf_value=0.21170992054503579 -0.0020347760565581382 -0.050039470372401501
leaf_weight=4.9333759397268322 3.0816522445529726 21.684587663039565
leaf_count=28 87 678
internal_value=-0.00157952 -0.0440928
internal_weight=29.6996 24.7662
internal_count=793 765
is_linear=0
shrinkage=0.05


Tree=193
num_leaves=3
num_cat=0
split_feature=10 19
split_gain=72.6514 0.171002
threshold=-88.999999999999986 1.5000000000000002
decision_type=2 2
left_child=-1 -2
right_child=1 -3
leaf_value=0.11812290801796524 -0.04963317440306883 -0.037332738655125694
leaf_weight=9.5427946150302905 17.735610509291295 3.9608444403856984
leaf_count=59 606 128
internal_value=0.0031295 -0.047418
internal_weight=31.2392 21.6965
internal_count=793 734
is_linear=0
shrinkage=0.05


Tree=194
num_leaves=3
num_cat=0
split_feature=23 3
split_gain=82.6559 3.86791
threshold=-1.0000000180025095e-35 -64.318999458965962
decision_type=2 2
left_child=1 -1
right_child=-2 -3
leaf_value=-0.049518452238061561 0.16846817010876303 0.011029937706028116
leaf_weight=21.39572503045202 5.7635912727564564 2.9888607971370211
leaf_count=730 31 32
internal_value=-0.00179841 -0.04207
internal_weight=30.1482 24.3846
internal_count=793 762
is_linear=0
shrinkage=0.05


Tree=195
num_leaves=2
num_cat=0
split_feature=26
split_gain=79.4501
threshold=-73.499999999999986
decision_type=2
left_child=-1
right_child=-2
leaf_value=-0.050080261277614169 0.13806371375568249
leaf_weight=22.404769219458107 7.4858235362917176
leaf_count=695 98
internal_value=-0.00293933
internal_weight=29.8906
internal_count=793
is_linear=0
shrinkage=0.05


Tree=196
num_leaves=2
num_cat=0
split_feature=7
split_gain=61.5426
threshold=-91.499999999999986
decision_type=2
left_child=-1
right_child=-2
leaf_value=0.10098201075443032 -0.049985981471697805
leaf_weight=10.003580190241339 20.759551314637065
leaf_count=165 628
internal_value=-0.000872701
internal_weight=30.7631
internal_count=793
is_linear=0
shrinkage=0.05


Tree=197
num_leaves=3
num_cat=0
split_feature=1 15
split_gain=20.8416 55.483
threshold=-83.417517899253895 -87.499999999999986
decision_type=2 2
left_child=1 -1
right_child=-2 -3
leaf_value=-0.04946883009031558 -0.049905333291737214 0.13074249404666552
leaf_weight=9.307049900293352 13.458186710253356 7.8887924849987057
leaf_count=308 399 86
internal_value=-0.00328321 0.033167
internal_weight=30.654 17.1958
internal_count=793 394
is_linear=0
shrinkage=0.05


Tree=198
num_leaves=2
num_cat=0
split_feature=28
split_gain=78.122
threshold=-64.499999999999986
decision_type=2
left_child=-1
right_child=-2
leaf_value=-0.049614410631111022 0.13299331867614161
leaf_weight=22.019276559352878 7.9794174432754508
leaf_count=706 87
internal_value=-0.00102025
internal_weight=29.9987
internal_count=793
is_linear=0
shrinkage=0.05


Tree=199
num_leaves=3
num_cat=0
split_feature=30 34
split_gain=98.4949 0.174519
threshold=2.6500000000000008 -63.499999999999993
decision_type=2 2
left_child=1 -1
right_child=-2 -3
leaf_value=-0.049785640581957315 0.14951203242296646 -0.036692583372797634
leaf_weight=19.533280868083242 8.7221092209219915 3.4226107224822071
leaf_count=597 134 62
internal_value=0.00646137 -0.0478622
internal_weight=31.678 22.9559
internal_count=793 659
is_linear=0
shrinkage=0.05


Tree=200
num_leaves=3
num_cat=0
split_feature=32 3
split_gain=59.591 1.05831
threshold=-85.499999999999986 -85.921965013891239
decision_type=2 2
left_child=-1 -2
right_child=1 -3
leaf_value=0.11654710758423165 -0.017062877101847524 -0.049416769690299817
leaf_weight=7.750435650348666 2.9985714256763485 18.692972354590893
leaf_count=67 62 656
internal_value=-0.00243257 -0.0449746
internal_weight=29.442 21.6915
internal_count=785 718
is_linear=0
shrinkage=0.05


Tree=201
num_leaves=3
num_cat=0
split_feature=14 22
split_gain=68.1165 2.2852
threshold=5.1500000000000012 3.6500000000000008
decision_type=2 2
left_child=1 -1
right_child=-2 -3
leaf_value=-0.049801885264181847 0.14601850196144137 -0.002939519594328888
leaf_weight=20.442931123077877 5.9178916811943045 3.0152586400508872
leaf_count=660 44 81
internal_value=-0.00554322 -0.0438064
internal_weight=29.3761 23.4582
internal_count=785 741
is_linear=0
shrinkage=0.05


Tree=202
num_leaves=2
num_cat=0
split_feature=28
split_gain=80.1261
threshold=-88.499999999999986
decision_type=2
left_child=-1
right_child=-2
leaf_value=0.13719655147307128 -0.049544898617926159
leaf_weight=7.8662341833114651 21.293440751731396
leaf_count=34 751
internal_value=0.000808686
internal_weight=29.1597
internal_count=785
is_linear=0
shrinkage=0.05


Tree=203
num_leaves=3
num_cat=0
split_feature=8 14
split_gain=37.7892 26.5198
threshold=-80.499999999999986 3.8500000000000001
decision_type=2 2
left_child=1 -1
right_child=-2 -3
leaf_value=-0.012982816422315222 -0.0495315727424121 0.12586308448426906
leaf_weight=6.2949066068977135 16.332512913271785 7.5597990844398737
leaf_count=159 564 62
internal_value=0.00197048 0.0627308
internal_weight=30.1872 13.8547
internal_count=785 221
is_linear=0
shrinkage=0.05


Tree=204
num_leaves=2
num_cat=0
split_feature=15
split_gain=90.0444
threshold=-76.499999999999986
decision_type=2
left_child=-1
right_child=-2
leaf_value=-0.050090892706742357 0.15167381650654665
leaf_weight=22.480468198657039 7.3336879014968863
leaf_count=749 36
internal_value=-0.00043873
internal_weight=29.8142
internal_count=785
is_linear=0
shrinkage=0.05


Tree=205
num_leaves=2
num_cat=0
split_feature=5
split_gain=90.6626
threshold=-63.999999999999993
decision_type=2
left_child=-1
right_child=-2
leaf_value=-0.049569496348690269 0.16042653106661198
leaf_weight=21.360353529453281 6.7683961633592835
leaf_count=754 31
internal_value=0.000936784
internal_weight=28.1287
internal_count=785
is_linear=0
shrinkage=0.05


Tree=206
num_leaves=2
num_cat=0
split_feature=15
split_gain=65.1295
threshold=-78.499999999999986
decision_type=2
left_child=-1
right_child=-2
leaf_value=-0.049888630727794391 0.10106007969776779
leaf_weight=19.773732490837578 11.189077384769915
leaf_count=623 162
internal_value=0.00463869
internal_weight=30.9628
internal_count=785
is_linear=0
shrinkage=0.05


Tree=207
num_leaves=3
num_cat=0
split_feature=23 23
split_gain=51.1573 0.753102
threshold=-78.499999999999986 -82.499999999999986
decision_type=2 2
left_child=1 -1
right_child=-2 -3
leaf_value=-0.049472397449509216 0.09266251064822921 -0.024043791938394128
leaf_weight=15.892091501504185 10.362159378826616 3.702117025852206
leaf_count=551 134 100
internal_value=0.0027919 -0.0447015
internal_weight=29.9564 19.5942
internal_count=785 651
is_linear=0
shrinkage=0.05


Tree=208
num_leaves=2
num_cat=0
split_feature=15
split_gain=33.3406
threshold=-78.499999999999986
decision_type=2
left_child=-1
right_child=-2
leaf_value=-0.049810371829015848 0.064049722167723977
leaf_weight=20.410824194550518 9.3829614389687759
leaf_count=623 162
internal_value=-0.0139303
internal_weight=29.7938
internal_count=785
is_linear=0
shrinkage=0.05


Tree=209
num_leaves=2
num_cat=0
split_feature=18
split_gain=82.4624
threshold=-68.499999999999986
decision_type=2
left_child=-1
right_child=-2
leaf_value=-0.049545611915766355 0.13762764074704736
leaf_weight=20.991211883723739 8.176435085013507
leaf_count=711 74
internal_value=0.00290127
internal_weight=29.1676
internal_count=785
is_linear=0
shrinkage=0.05


Tree=210
num_leaves=2
num_cat=0
split_feature=2
split_gain=72.5918
threshold=-76.347015106680814
decision_type=2
left_child=-1
right_child=-2
leaf_value=-0.049773626231729123 0.12577517972235855
leaf_weight=21.875257968902591 8.0579344220459443
leaf_count=693 92
internal_value=-0.00249438
internal_weight=29.9332
internal_count=785
is_linear=0
shrinkage=0.05


Tree=211
num_leaves=3
num_cat=0
split_feature=17 30
split_gain=52.2877 0.254842
threshold=-92.499999999999986 0.75000000000000011
decision_type=2 2
left_child=-1 -2
right_child=1 -3
leaf_value=0.094125122503677355 -0.032285794197434318 -0.049464829802892532
leaf_weight=9.655336409807207 2.7377990130335119 17.591849066317081
leaf_count=60 85 640
internal_value=-0.0016595 -0.0471837
internal_weight=29.985 20.3296
internal_count=785 725
is_linear=0
shrinkage=0.05


Tree=212
num_leaves=3
num_cat=0
split_feature=6 30
split_gain=73.1324 1.03568
threshold=4.9500000000000011 2.9500000000000006
decision_type=2 2
left_child=1 -1
right_child=-2 -3
leaf_value=-0.049514084619205034 0.12885593285292915 -0.017643499431715115
leaf_weight=18.580937882885344 8.3894998803734762 3.0330811068415633
leaf_count=621 99 65
internal_value=0.00353921 -0.0450721
internal_weight=30.0035 21.614
internal_count=785 686
is_linear=0
shrinkage=0.05


Tree=213
num_leaves=3
num_cat=0
split_feature=7 28
split_gain=38.3473 98.3954
threshold=-85.499999999999986 -68.499999999999986
decision_type=2 2
left_child=-1 -2
right_child=1 -3
leaf_value=-0.05009500901653853 -0.04926451937428139 0.24217413600610527
leaf_weight=17.117014199495319 7.3043881487101316 4.7960511855781061
leaf_count=486 270 29
internal_value=-0.00191134 0.0661938
internal_weight=29.2175 12.1004
internal_count=785 299
is_linear=0
shrinkage=0.05


Tree=214
num_leaves=3
num_cat=0
split_feature=21 21
split_gain=71.5755 9.29424
threshold=-91.499999999999986 -74.499999999999986
decision_type=2 2
left_child=-1 -2
right_child=1 -3
leaf_value=0.16893813011528053 -0.049947246813865968 0.039583752963526536
leaf_weight=5.0674806684255627 21.008702006191022 3.3543963599950031
leaf_count=24 643 118
internal_value=-0.0020095 -0.0375933
internal_weight=29.4306 24.3631
internal_count=785 761
is_linear=0
shrinkage=0.05


Tree=215
num_leaves=2
num_cat=0
split_feature=31
split_gain=73.765
threshold=-66.499999999999986
decision_type=2
left_child=-1
right_child=-2
leaf_value=-0.049489020954240646 0.12814562263632387
leaf_weight=20.974999718368053 8.1017564982175845
leaf_count=720 65
internal_value=0
internal_weight=29.0768
internal_count=785
is_linear=0
shrinkage=0.05


Tree=216
num_leaves=2
num_cat=0
split_feature=22
split_gain=93.9023
threshold=5.9500000000000002
decision_type=2
left_child=-1
right_child=-2
leaf_value=-0.049542567837538132 0.17567344480562241
leaf_weight=23.091451911255721 5.7882695496082297
leaf_count=757 28
internal_value=-0.00438047
internal_weight=28.8797
internal_count=785
is_linear=0
shrinkage=0.05


Tree=217
num_leaves=3
num_cat=0
split_feature=5 15
split_gain=98.9008 0.283049
threshold=-91.499999999999986 -91.499999999999986
decision_type=2 2
left_child=-1 -2
right_child=1 -3
leaf_value=0.16935138450850923 -0.032573293546157726 -0.049931102573798049
leaf_weight=6.8559474945068386 2.9436331987381008 19.453993262723088
leaf_count=38 115 632
internal_value=0.00316219 -0.0476792
internal_weight=29.2536 22.3976
internal_count=785 747
is_linear=0
shrinkage=0.05


Tree=218
num_leaves=3
num_cat=0
split_feature=10 0
split_gain=59.3793 0.204244
threshold=-88.999999999999986 -87.372656607224499
decision_type=2 2
left_child=-1 -2
right_child=1 -3
leaf_value=0.10044368594639921 -0.033535246352533479 -0.049275873999494423
leaf_weight=10.183035314083101 2.6558430120348957 17.844346674159169
leaf_count=59 48 678
internal_value=0.00173208 -0.0472687
internal_weight=30.6832 20.5002
internal_count=785 726
is_linear=0
shrinkage=0.05


Tree=219
num_leaves=2
num_cat=0
split_feature=33
split_gain=89.6076
threshold=-65.499999999999986
decision_type=2
left_child=-1
right_child=-2
leaf_value=-0.049896809719465501 0.14580752461715593
leaf_weight=21.998761614784602 7.9672637246549121
leaf_count=738 47
internal_value=0.00211443
internal_weight=29.966
internal_count=785
is_linear=0
shrinkage=0.05


Tree=220
num_leaves=3
num_cat=0
split_feature=16 2
split_gain=79.3259 0.267198
threshold=-91.499999999999986 -76.347015106680814
decision_type=2 2
left_child=-1 -2
right_child=1 -3
leaf_value=0.14070356247379343 -0.049571834320589037 -0.032403542847378779
leaf_weight=7.513884291052821 19.225432664155967 2.8443685788661197
leaf_count=52 655 78
internal_value=0.000361923 -0.047389
internal_weight=29.5837 22.0698
internal_count=785 733
is_linear=0
shrinkage=0.05


Tree=221
num_leaves=2
num_cat=0
split_feature=1
split_gain=72.2713
threshold=-88.124734448414785
decision_type=2
left_child=-1
right_child=-2
leaf_value=0.11002257513512992 -0.049714877107031
leaf_weight=10.856640398502352 20.358261626213789
leaf_count=120 665
internal_value=0.00582123
internal_weight=31.2149
internal_count=785
is_linear=0
shrinkage=0.05


Tree=222
num_leaves=4
num_cat=0
split_feature=22 34 19
split_gain=46.8736 62.76 0.264606
threshold=2.5500000000000003 -67.999999999999986 1.5000000000000002
decision_type=2 2 2
left_child=2 -2 -1
right_child=1 -3 -4
leaf_value=-0.049787348120823582 -0.049513167749269504 0.17812191391046447 -0.03278679540620983
leaf_weight=15.301517289131885 5.3518898766487837 6.9623791705816966 2.9923811908811322
leaf_count=470 182 34 99
internal_value=0.00370023 0.0791363 -0.0470425
internal_weight=30.6082 12.3143 18.2939
internal_count=785 216 569
is_linear=0
shrinkage=0.05


Tree=223
num_leaves=3
num_cat=0
split_feature=25 2
split_gain=93.1298 0.958137
threshold=-90.499999999999986 -87.07783356098976
decision_type=2 2
left_child=-1 -2
right_child=1 -3
leaf_value=0.16651756641837651 -0.019814128554015605 -0.049778218157329239
leaf_weight=6.7160712927579906 3.1839506477117565 19.378797931596637
leaf_count=77 71 637
internal_value=0.00304995 -0.045579
internal_weight=29.2788 22.5627
internal_count=785 708
is_linear=0
shrinkage=0.05


Tree=224
num_leaves=2
num_cat=0
split_feature=34
split_gain=62.9605
threshold=-63.499999999999993
decision_type=2
left_child=-1
right_child=-2
leaf_value=-0.049662151463815557 0.11058300687229916
leaf_weight=21.304815502837304 8.6052963677793723
leaf_count=690 95
internal_value=-0.00353678
internal_weight=29.9101
internal_count=785
is_linear=0
shrinkage=0.05


Tree=225
num_leaves=2
num_cat=0
split_feature=3
split_gain=42.4375
threshold=-85.921965013891239
decision_type=2
left_child=-1
right_child=-2
leaf_value=0.075416042766564509 -0.049390318230793456
leaf_weight=10.934965908527376 18.05903978459537
leaf_count=124 661
internal_value=-0.00229744
internal_weight=28.994
internal_count=785
is_linear=0
shrinkage=0.05


Tree=226
num_leaves=3
num_cat=0
split_feature=22 22
split_gain=56.5497 0.189734
threshold=4.0500000000000007 3.2500000000000004
decision_type=2 2
left_child=1 -1
right_child=-2 -3
leaf_value=-0.049654959943872409 0.11139585032140067 -0.035242594431115597
leaf_weight=18.139110688120134 7.5974676199257365 3.0148791074752799
leaf_count=631 79 75
internal_value=-0.00558659 -0.047632
internal_weight=28.7515 21.154
internal_count=785 706
is_linear=0
shrinkage=0.05


Tree=227
num_leaves=2
num_cat=0
split_feature=34
split_gain=72.1797
threshold=-87.499999999999986
decision_type=2
left_child=-1
right_child=-2
leaf_value=0.12713015994363328 -0.049522786392194248
leaf_weight=8.0960185788571852 20.234644945710897
leaf_count=34 751
internal_value=0.000935888
internal_weight=28.3307
internal_count=785
is_linear=0
shrinkage=0.05


Tree=228
num_leaves=3
num_cat=0
split_feature=8 14
split_gain=33.5997 21.1624
threshold=-80.499999999999986 3.8500000000000001
decision_type=2 2
left_child=1 -1
right_child=-2 -3
leaf_value=-0.012492636673350821 -0.049449687957414806 0.1102725926089989
leaf_weight=6.1927957981824902 15.453863874077795 8.0778464786708337
leaf_count=159 564 62
internal_value=0.00161134 0.0569521
internal_weight=29.7245 14.2706
internal_count=785 221
is_linear=0
shrinkage=0.05


Tree=229
num_leaves=2
num_cat=0
split_feature=15
split_gain=78.0087
threshold=-76.499999999999986
decision_type=2
left_child=-1
right_child=-2
leaf_value=-0.049981135347095834 0.13458420447486025
leaf_weight=21.262442596256736 7.8346199113875619
leaf_count=749 36
internal_value=-0.000262811
internal_weight=29.0971
internal_count=785
is_linear=0
shrinkage=0.05


Tree=230
num_leaves=2
num_cat=0
split_feature=10
split_gain=75.7542
threshold=-66.499999999999986
decision_type=2
left_child=-1
right_child=-2
leaf_value=-0.049485402681937032 0.1381950692454828
leaf_weight=20.158095311373476 7.3322564363479605
leaf_count=753 32
internal_value=0.000549007
internal_weight=27.4904
internal_count=785
is_linear=0
shrinkage=0.05


Tree=231
num_leaves=3
num_cat=0
split_feature=17 30
split_gain=54.7677 0.257528
threshold=-77.499999999999986 0.8500000000000002
decision_type=2 2
left_child=1 -1
right_child=-2 -3
leaf_value=-0.033290740268871778 0.090570205656767946 -0.049789561329990524
leaf_weight=3.0891060754656854 11.547045068815349 16.149438038468361
leaf_count=119 143 523
internal_value=0.00446931 -0.0471746
internal_weight=30.7856 19.2385
internal_count=785 642
is_linear=0
shrinkage=0.05


Tree=232
num_leaves=2
num_cat=0
split_feature=2
split_gain=52.4134
threshold=-76.993848874637905
decision_type=2
left_child=-1
right_child=-2
leaf_value=-0.049484418261994789 0.087190113081781317
leaf_weight=18.41149336099625 11.331661446020005
leaf_count=667 118
internal_value=0.00256425
internal_weight=29.7432
internal_count=785
is_linear=0
shrinkage=0.05


Tree=233
num_leaves=2
num_cat=0
split_feature=2
split_gain=32.9865
threshold=-78.430345983843921
decision_type=2
left_child=-1
right_child=-2
leaf_value=-0.04978488663342498 0.064229470569762984
leaf_weight=19.811072275042537 9.3293885570019466
leaf_count=613 172
internal_value=-0.0132603
internal_weight=29.1405
internal_count=785
is_linear=0
shrinkage=0.05


Tree=234
num_leaves=3
num_cat=0
split_feature=14 26
split_gain=60.5058 6.02466
threshold=4.7500000000000009 -75.499999999999986
decision_type=2 2
left_child=1 -1
right_child=-2 -3
leaf_value=-0.049838308163778391 0.12985818560479354 0.022408585346676831
leaf_weight=18.353747213259346 7.0714883990585795 3.4102354235947123
leaf_count=595 62 128
internal_value=0.002774 -0.0384876
internal_weight=28.8355 21.764
internal_count=785 723
is_linear=0
shrinkage=0.05


Tree=235
num_leaves=4
num_cat=0
split_feature=6 6 11
split_gain=60.3759 5.64977 0.233105
threshold=5.7500000000000009 4.8500000000000005 1.5000000000000002
decision_type=2 2 2
left_child=1 2 -1
right_child=-2 -3 -4
leaf_value=-0.049682333231848758 0.14242518800582868 0.024734367020030224 -0.033892594201525711
leaf_weight=17.452353145927201 5.7841199934482566 3.11893106997013 3.0377246905118218
leaf_count=576 41 67 101
internal_value=-0.00232785 -0.0378197 -0.0473736
internal_weight=29.3931 23.609 20.4901
internal_count=785 744 677
is_linear=0
shrinkage=0.05


Tree=236
num_leaves=2
num_cat=0
split_feature=18
split_gain=46.0412
threshold=-91.499999999999986
decision_type=2
left_child=-1
right_child=-2
leaf_value=0.08028164002012983 -0.049274975892642736
leaf_weight=10.885245919227602 18.532286869361997
leaf_count=62 723
